%YAML:1.0
my_svm: !!opencv-ml-svm
   svm_type: C_SVC
   kernel: { type:LINEAR }
   C: 2.6699999999999999e+00
   term_criteria: { epsilon:1.1920928955078125e-07, iterations:1000 }
   var_all: 64
   var_count: 64
   class_count: 2
   class_labels: !!opencv-matrix
      rows: 1
      cols: 2
      dt: i
      data: [ 0, 1 ]
   sv_total: 1
   support_vectors:
      - [ 1.94285884e-01, 1.00438111e-01, -7.01744780e-02,
          3.05913445e-02, -2.88900018e-01, -1.48961097e-01,
          -2.81092465e-01, 2.68950760e-01, 1.15957439e+00,
          -3.40368837e-01, -4.28748131e-01, -9.94481295e-02,
          -4.67988759e-01, 8.16844627e-02, -2.44076163e-01,
          -3.57167304e-01, -1.46458435e+00, 1.50854811e-01,
          -5.07424287e-02, -1.05543368e-01, -2.11400706e-02,
          9.98125672e-02, 1.03732526e+00, 1.90842783e+00, 1.57784259e+00,
          9.68830585e-01, 2.04892921e+00, 4.56443012e-01, 7.86433458e-01,
          -6.84414566e-01, -1.78067136e+00, -2.39260960e+00,
          -1.00211811e+00, -9.17132497e-01, 6.77665174e-01,
          2.08335757e+00, 1.29704320e+00, 1.33448884e-01,
          -1.52224767e+00, -3.41715127e-01, -7.31122196e-01,
          -9.45735812e-01, -1.43941969e-01, 3.40623766e-01,
          1.18839097e+00, 2.76378661e-01, 2.45795548e-01, 1.73390120e-01,
          1.10428476e+00, 1.92335570e+00, 1.12104452e+00, 2.05860853e-01,
          -3.37939769e-01, -6.56836927e-01, -1.85579205e+00,
          -9.82334137e-01, -2.16685748e+00, -1.72705591e+00,
          2.85945624e-01, 5.94887555e-01, 1.45632255e+00, 6.47658110e-01,
          -2.96289593e-01, 6.63171947e-01 ]
   decision_functions:
      -
         sv_count: 1
         rho: 3.0666976555380501e-02
         alpha: [ 1. ]
         index: [ 0 ]
