%YAML:1.0
my_svm: !!opencv-ml-svm
   svm_type: C_SVC
   kernel: { type:LINEAR }
   C: 2.6699999999999999e+00
   term_criteria: { epsilon:1.1920928955078125e-07, iterations:1000 }
   var_all: 64
   var_count: 64
   class_count: 4
   class_labels: !!opencv-matrix
      rows: 1
      cols: 4
      dt: i
      data: [ 0, 1, 2, 3 ]
   sv_total: 6
   support_vectors:
      - [ 7.02844977e-01, 8.43139648e-01, 5.09907901e-01,
          -1.61191270e-01, -8.99602473e-02, 1.95013165e-01,
          1.92491356e-02, 7.55588889e-01, 8.66713345e-01, 7.68754303e-01,
          5.73702753e-01, 2.22397730e-01, 8.68675709e-02,
          -3.19669604e-01, -3.79770726e-01, -2.99617738e-01,
          4.65068817e-01, -1.59936929e+00, -9.32215393e-01,
          -1.58330953e+00, -7.24283338e-01, 2.46976838e-01,
          1.88951039e+00, 3.30777645e+00, 1.74603128e+00, 7.26326406e-01,
          8.18411291e-01, 1.77208036e-01, 1.58861876e-01,
          -9.11807895e-01, -1.77653015e+00, -6.66920766e-02,
          1.86497495e-01, -3.27842653e-01, -1.95525914e-01,
          3.93388718e-01, 5.51550806e-01, 1.06418288e+00, 1.83746183e+00,
          4.01603401e-01, -1.49119663e+00, -1.05449307e+00,
          -1.13171148e+00, -1.10743213e+00, -9.77677524e-01,
          -8.62150967e-01, 1.70824781e-01, 4.89594042e-01,
          8.25235784e-01, -1.01418710e+00, -6.66256607e-01,
          2.44013146e-01, -1.55702806e+00, -2.04466295e+00,
          -9.72864687e-01, 1.36178267e+00, -8.04320037e-01,
          -7.46759653e-01, -7.44677365e-01, 2.06253600e+00,
          1.14936125e+00, -5.52923232e-02, 6.60973489e-01,
          1.81358016e+00 ]
      - [ 9.22395140e-02, 4.51540351e-01, 2.74160147e-01,
          -1.61658108e-01, -4.33162272e-01, -3.27696711e-01,
          -1.78235605e-01, 7.21769333e-02, 2.57737577e-01,
          1.66716818e-02, 7.81877711e-02, -4.22582179e-01,
          -4.94160682e-01, -3.11800033e-01, -2.05340102e-01,
          3.38431209e-01, 3.02657306e-01, 1.95200671e-03,
          -2.69735038e-01, -3.10525030e-01, -1.28657296e-01,
          -1.39666647e-01, -6.46155477e-02, 4.36798126e-01,
          -1.56219929e-01, -4.12776262e-01, -3.95232677e-01,
          -1.62368134e-01, -1.80430800e-01, -1.54441968e-01,
          -8.95081684e-02, 2.89694786e-01, 1.63352132e-01,
          -4.31037433e-02, -4.48099017e-01, -2.93464571e-01,
          -7.02442750e-02, 4.66427535e-01, 3.93293083e-01,
          -1.77178472e-01, -4.16596949e-01, 8.50549191e-02,
          -5.59432134e-02, -3.27099025e-01, -5.36018550e-01,
          -5.78005612e-01, -6.56809509e-01, -6.67730451e-01,
          6.42795742e-01, -3.95132214e-01, 1.50943652e-01,
          2.44482636e-01, 5.21583021e-01, -1.81455947e-02,
          -2.52510428e-01, 8.81444141e-02, -2.43395567e-01,
          -9.45750773e-01, -4.32371527e-01, 4.81073678e-01,
          7.11124957e-01, 3.06987017e-01, -3.01694900e-01,
          -2.66325809e-02 ]
      - [ -5.18361390e-01, 1.02736485e+00, 1.68339491e-01,
          -4.87080485e-01, -5.58526874e-01, -3.90835255e-01,
          -2.80047748e-02, 8.14661205e-01, 2.21714306e+00,
          1.55261171e+00, 9.79195297e-01, 5.89097977e-01, 6.20416820e-01,
          1.09189086e-01, -1.02387607e+00, -7.45207906e-01,
          9.70832467e-01, 1.68850586e-01, 9.29443762e-02,
          -6.79319680e-01, -9.58412945e-01, -3.38966429e-01,
          1.10414612e+00, 2.25760913e+00, 1.21935129e+00,
          -5.87941967e-02, -1.11434475e-01, -3.80193025e-01,
          3.75237137e-01, -6.78371638e-02, -1.48330045e+00,
          1.62793741e-01, 1.17176390e+00, -1.38337597e-01,
          3.16517472e-01, -2.41175845e-01, -9.00808096e-01,
          -1.58422959e+00, -2.52492055e-02, 1.37020624e+00,
          -3.20945084e-01, -1.03464520e+00, -2.83847630e-01,
          -1.68693155e-01, 6.52148500e-02, -5.27629256e-03,
          7.72914112e-01, 1.65181887e+00, 8.64625573e-01,
          -8.98290634e-01, -1.29681265e+00, 6.87239885e-01,
          -5.86121261e-01, -1.28815436e+00, -1.52137429e-01,
          1.01548767e+00, -1.13605082e+00, -1.13544261e+00,
          -6.51780367e-01, 1.80194461e+00, 5.98561108e-01,
          8.78290683e-02, 4.20571007e-02, 1.70653844e+00 ]
      - [ -3.08371782e-01, -4.88762856e-02, -1.05316594e-01,
          -3.45027447e-01, -5.27673006e-01, -2.66827196e-01,
          -5.65596484e-03, -3.72657120e-01, -2.16789860e-02,
          -3.50768417e-01, -1.75433069e-01, -6.03318334e-01,
          -3.91544014e-01, -2.37886831e-01, 2.84364028e-03,
          5.88950932e-01, 1.07526109e-01, 4.63360667e-01,
          -4.05259319e-02, 1.74838994e-02, 1.23490334e-01,
          -4.41543370e-01, -6.11528814e-01, -1.67484790e-01,
          -5.45579910e-01, -3.38607132e-01, -4.65562850e-01,
          -3.44434798e-01, -2.42600575e-01, 1.10951699e-01,
          4.27405298e-01, 2.37734079e-01, 2.05791324e-01, 4.11151379e-01,
          5.14912307e-02, -5.83021581e-01, -3.06606442e-01,
          3.74222159e-01, 2.78761797e-02, -2.01586559e-01,
          -1.81762129e-02, 3.64297092e-01, 3.70715439e-01,
          -1.28262326e-01, -3.78657520e-01, -5.06651461e-01,
          -5.51141441e-01, -5.69112003e-01, 2.43075833e-01,
          2.91652512e-02, 1.69437602e-01, 2.97621995e-01, 1.08107960e+00,
          5.52437723e-01, 2.65316397e-01, -1.88225672e-01,
          -3.95138055e-01, -7.10065186e-01, -5.48651993e-01,
          -2.64555573e-01, -1.20180428e-01, 3.35487247e-01,
          -3.27400982e-01, -4.86965925e-01 ]
      - [ -1.39954746e+00, 8.55426118e-02, -2.68968612e-01,
          -1.41766578e-01, -3.40627432e-01, -5.77578127e-01,
          -6.82924315e-02, -2.88951635e-01, 8.50018740e-01,
          7.75471628e-01, 3.36819649e-01, 5.38264453e-01, 6.00666881e-01,
          4.99586076e-01, -5.33189714e-01, -2.33318105e-01,
          2.05335334e-01, 1.86463547e+00, 1.13265610e+00, 9.35701430e-01,
          1.98224753e-01, -2.69867003e-01, -9.88365293e-01,
          -1.27693963e+00, -7.63845921e-01, -8.57262671e-01,
          -1.19229639e+00, -6.25505805e-01, 3.34307522e-01,
          1.07409060e+00, 1.70618087e-01, 6.62463456e-02, 7.82398343e-01,
          -1.01304874e-01, 1.18823521e-01, -1.09107137e+00,
          -1.66059399e+00, -2.99101305e+00, -2.27401638e+00,
          8.17793012e-01, 1.47991526e+00, 3.65014434e-01, 1.05499291e+00,
          1.23283088e+00, 1.22990870e+00, 7.22406387e-01, 1.82008833e-01,
          7.12083459e-01, -5.07843971e-01, -3.10965151e-01,
          -6.35280967e-01, 5.34404695e-01, 1.37454438e+00,
          8.68887126e-01, 9.29708779e-01, -4.66948241e-01,
          2.37800077e-01, -1.61257133e-01, 3.27072769e-01,
          -1.07287161e-01, -7.56079018e-01, -3.57567891e-02,
          -7.01748967e-01, -3.60785127e-01 ]
      - [ 2.02777274e-02, 2.47033134e-01, 1.41746970e-02, 3.66369635e-01,
          2.09921673e-01, -5.48601057e-03, -1.17426760e-01,
          -4.91998903e-02, -7.60944113e-02, 3.34603250e-01,
          3.46943624e-02, 5.73975086e-01, 2.87452698e-01, 2.79480308e-01,
          -4.11747634e-01, -5.29783964e-01, 2.76331633e-01,
          1.77336976e-01, 3.60524684e-01, 2.35665634e-01,
          -1.77426651e-01, 1.50498897e-01, -3.80900539e-02,
          -8.79785642e-02, 4.78068888e-02, 2.16835011e-02,
          -1.01080023e-01, 1.05881188e-02, 2.77002394e-01,
          2.53637016e-01, -3.08123976e-01, -2.06052795e-01,
          -9.05508697e-02, -2.33135656e-01, 2.16635764e-01,
          3.18502218e-01, -1.34728774e-01, -6.84359074e-01,
          -6.44327879e-01, 5.91056764e-01, 3.86004061e-01,
          -6.30221605e-01, -2.59420693e-01, 9.42769870e-02,
          2.93127388e-01, 3.00802708e-01, 3.57443064e-01, 5.44130981e-01,
          2.71501303e-01, -1.15466252e-01, -7.40057051e-01,
          1.51376888e-01, -3.98149550e-01, -2.67957188e-02,
          -5.23568429e-02, 3.62779260e-01, 2.59821236e-01,
          3.77359167e-02, 3.89607817e-01, 3.29513222e-01,
          -3.97220284e-01, -5.45636654e-01, 5.45375375e-03,
          9.26379740e-01 ]
   decision_functions:
      -
         sv_count: 1
         rho: 4.3066020681771244e-01
         alpha: [ 1. ]
         index: [ 0 ]
      -
         sv_count: 1
         rho: -9.8013081930824320e-01
         alpha: [ 1. ]
         index: [ 1 ]
      -
         sv_count: 1
         rho: 6.8157672782550183e-01
         alpha: [ 1. ]
         index: [ 2 ]
      -
         sv_count: 1
         rho: -1.2073380995369516e+00
         alpha: [ 1. ]
         index: [ 3 ]
      -
         sv_count: 1
         rho: 1.0485995036762978e-01
         alpha: [ 1. ]
         index: [ 4 ]
      -
         sv_count: 1
         rho: 1.1731883356603532e+00
         alpha: [ 1. ]
         index: [ 5 ]
