%YAML:1.0
my_svm: !!opencv-ml-svm
   svm_type: C_SVC
   kernel: { type:LINEAR }
   C: 2.6699999999999999e+00
   term_criteria: { epsilon:1.1920928955078125e-07, iterations:1000 }
   var_all: 64
   var_count: 64
   class_count: 6
   class_labels: !!opencv-matrix
      rows: 1
      cols: 6
      dt: i
      data: [ 0, 1, 2, 3, 4, 5 ]
   sv_total: 15
   support_vectors:
      - [ 1.43697500e+00, 6.46224320e-01, 1.98444203e-01,
          -5.02892807e-02, 3.23822349e-01, 3.06471414e-03,
          2.71412253e-01, 4.26208496e-01, -9.76421773e-01,
          -7.61949599e-01, -4.14929926e-01, -5.32317460e-01,
          -7.54150748e-01, -4.84642923e-01, -5.06336391e-01,
          1.09889710e+00, -1.99620411e-01, -3.05141449e-01,
          4.63780224e-01, -1.47221878e-01, 3.81393790e-01,
          7.39494681e-01, 1.05434895e+00, -2.08112341e-03,
          -8.69294524e-01, -3.89546394e-01, 4.17213023e-01,
          3.09379041e-01, 1.36053193e+00, 2.73817331e-01,
          -1.13738656e+00, -6.16734445e-01, -3.32069173e-02,
          -1.15228808e+00, -5.72298110e-01, -3.90153110e-01,
          -9.70025003e-01, -5.93035758e-01, -5.99113218e-02,
          6.24839544e-01, 9.30503786e-01, 3.38256776e-01,
          -1.00836672e-01, 1.95432857e-01, -5.46435595e-01,
          -2.47539684e-01, -3.91774058e-01, -4.58031029e-01,
          -6.08132303e-01, 5.22388279e-01, -6.58946931e-01,
          -1.16301560e+00, 3.44995558e-01, 8.26127529e-01,
          9.91503239e-01, 5.52569211e-01, 9.21917617e-01, 5.64341724e-01,
          5.90543807e-01, -7.50046015e-01, -1.51056826e-01,
          1.40810645e+00, 9.03795600e-01, -1.24599826e+00 ]
      - [ 1.34994960e+00, 3.06069016e-01, 2.43140548e-01, 5.08451127e-02,
          6.85767651e-01, 1.52279928e-01, 7.41929054e-01, 1.19429636e+00,
          -4.31303501e-01, -1.83582991e-01, -4.46608551e-02,
          -2.95042813e-01, -4.06220019e-01, -4.33655344e-02,
          3.64238173e-02, 9.99222040e-01, -9.05390456e-02,
          -6.40116870e-01, -7.32236207e-01, -9.42749381e-01,
          8.54849443e-02, 3.65894854e-01, 6.69627786e-01, 7.57400453e-01,
          -1.08164227e+00, -7.06540346e-01, -3.37081820e-01,
          -1.33461982e-01, 4.79767352e-01, 4.33691204e-01,
          5.68996854e-02, 3.88092071e-01, -8.64608526e-01,
          -1.50922942e+00, -4.37640548e-01, 5.32185197e-01,
          -7.29605198e-01, -9.96281981e-01, -3.48516524e-01,
          7.38531590e-01, 1.59694314e+00, 5.56952894e-01, 2.52598405e-01,
          1.75178260e-01, -8.60415280e-01, 8.52769837e-02,
          -3.86141539e-01, 7.47379184e-01, -1.19208299e-01,
          -6.44621015e-01, -9.61172163e-01, -8.94596159e-01,
          -9.23834562e-01, 3.79657447e-01, 4.56785858e-01,
          5.50999820e-01, 1.88152659e+00, 1.42079651e-01,
          -4.12566103e-02, -8.73192370e-01, -6.33119762e-01,
          3.76817673e-01, 3.05736065e-01, 4.40066516e-01 ]
      - [ 5.25705099e-01, 6.78078771e-01, 2.05561370e-01, 4.65824455e-01,
          9.88955796e-01, 2.64972478e-01, 6.22766495e-01, 3.28977585e-01,
          -1.73422134e+00, -6.28059924e-01, -1.50715694e-01,
          -4.87509161e-01, -8.21216822e-01, 5.78774288e-02,
          5.16464353e-01, 1.29395425e+00, -7.90617883e-01,
          1.44673130e-02, 7.60025203e-01, 8.36025894e-01, 5.02099991e-01,
          7.59500787e-02, 4.77734655e-01, -8.95122647e-01,
          -8.63270879e-01, 1.34864533e-02, 8.19721282e-01,
          2.30456054e-01, 1.23769104e+00, 4.91741061e-01,
          -4.95360762e-01, -1.92089880e+00, -4.75778013e-01,
          -7.59889901e-01, -3.64971161e-01, 7.16246903e-01,
          -9.11010131e-02, -3.72105658e-01, -6.18681967e-01,
          4.15246397e-01, 1.70023131e+00, 1.16838276e+00, 9.55914319e-01,
          1.05148578e+00, 5.02868056e-01, 9.46133196e-01,
          -5.85788667e-01, -1.11284757e+00, -1.35587978e+00,
          9.23007667e-01, -2.25847512e-01, -1.19131935e+00,
          -3.17130201e-02, 1.67779505e+00, 1.57924533e+00,
          -3.77854198e-01, 7.33796179e-01, 7.79517949e-01,
          1.40223980e+00, -4.32196915e-01, -1.12396133e+00,
          1.19027293e+00, 1.15175200e+00, -1.66698611e+00 ]
      - [ 4.20412689e-01, 3.47647339e-01, 2.03523979e-01,
          -1.73780158e-01, 2.95743018e-01, -1.28853824e-02,
          -8.26738179e-02, 2.30751023e-01, -7.83678293e-01,
          -2.52716113e-02, -1.70196146e-01, -4.21767235e-01,
          -4.86494094e-01, -2.85714507e-01, 1.29811630e-01,
          7.68924356e-01, 6.64872110e-01, 3.00399601e-01, 1.31316468e-01,
          -3.83243591e-01, 4.32071120e-01, 2.02538922e-01,
          6.19827867e-01, 1.03971183e+00, 3.23526770e-01, 2.87413716e-01,
          7.26969615e-02, -6.92238510e-01, 5.85434020e-01,
          3.09749991e-01, 2.13274226e-01, 3.04838866e-01,
          -3.97348143e-02, -1.47212148e-01, 2.55604256e-02,
          -6.05210811e-02, -5.73743224e-01, -3.02550584e-01,
          -1.32188797e-01, 4.14152056e-01, 1.21019296e-01,
          -1.38199285e-01, -6.40481830e-01, -3.21622670e-01,
          -1.57738969e-01, 5.74574649e-01, 8.29042215e-03,
          8.75057057e-02, -2.20855698e-01, 3.48672271e-01,
          -2.83278942e-01, -1.22588955e-01, -7.24310219e-01,
          -6.49819300e-02, 4.69830543e-01, -7.52255261e-01,
          -5.42444699e-02, -4.76548254e-01, 2.25129008e-01,
          -2.64835805e-01, 3.15222979e-01, 1.29986548e+00,
          7.70930171e-01, -4.23879206e-01 ]
      - [ 1.24274898e+00, -1.24187969e-01, -3.97074819e-01,
          -1.11238539e-01, 7.44341254e-01, 5.92301413e-02,
          7.71699920e-02, 1.58084676e-01, -1.59415591e+00,
          -1.13153887e+00, -4.64141488e-01, -5.77679634e-01,
          -1.28317916e+00, -7.12629855e-02, 6.06876135e-01,
          2.02504277e+00, -9.34421778e-01, -2.94473767e-01,
          -2.88541257e-01, -1.96909964e-01, 4.55963463e-01,
          8.83648872e-01, 1.26179838e+00, 8.41882765e-01,
          -6.82698667e-01, 6.13951087e-01, 3.77095640e-01,
          -3.28605235e-01, 1.21572924e+00, 9.42975581e-01,
          7.06884444e-01, -6.13692343e-01, -2.08721668e-01,
          -1.51352739e+00, -1.53159976e+00, -1.68565500e+00,
          -2.48298812e+00, -1.71481502e+00, -1.61673963e+00,
          1.73648393e+00, 2.22753954e+00, 1.08391285e+00, 3.21608692e-01,
          -6.22116148e-01, -6.61121309e-01, 1.71584070e-01,
          -7.96459079e-01, -3.51853549e-01, -4.04696435e-01,
          5.76689877e-02, -1.43036649e-01, -3.97214055e-01,
          8.60364437e-01, 1.08656967e+00, 2.79676735e-01,
          -1.58537030e+00, -2.50599891e-01, 7.62599036e-02,
          5.30019403e-01, 8.71604383e-01, 1.14212525e+00, 1.42998624e+00,
          5.84806263e-01, -1.30008745e+00 ]
      - [ 2.64921486e-01, -5.75104713e-01, -1.06810993e-02,
          3.83710206e-01, 6.54998779e-01, 1.23629645e-01, 5.90512335e-01,
          9.33352649e-01, 5.09954333e-01, 1.41567647e-01,
          -7.17124566e-02, 1.59667626e-01, 2.42223114e-01,
          4.80554521e-01, 6.11860693e-01, 3.41771752e-01,
          -2.50686735e-01, -8.97431731e-01, -1.41943634e+00,
          -7.93170094e-01, -3.34570706e-01, -7.06776619e-01,
          -1.02295017e+00, 3.13081264e-01, -8.67093146e-01,
          -6.06351256e-01, -1.12822092e+00, -2.70532966e-01,
          -6.18099451e-01, 4.17082012e-02, 8.93947959e-01,
          4.99848664e-01, -8.38125110e-01, -4.78013456e-01,
          -3.14395428e-02, 1.21395898e+00, 6.91426694e-01,
          -7.54334688e-01, 1.69890299e-01, 4.66509789e-01,
          1.07357609e+00, 1.64322957e-01, 1.14303052e-01, 1.41985685e-01,
          -1.48934275e-01, -7.96179846e-02, -6.17360994e-02,
          1.17960942e+00, 7.68527687e-01, -1.57551551e+00,
          -5.22332489e-01, -1.77781627e-01, -1.66443300e+00,
          -4.18987006e-01, -6.33011878e-01, 3.39364290e-01,
          1.77985775e+00, -4.31435257e-01, -1.03731394e+00,
          -4.03586417e-01, -1.99599087e-01, -1.37290323e+00,
          -4.15892035e-01, 2.62086320e+00 ]
      - [ -4.38550383e-01, 2.36800998e-01, 2.70239681e-01,
          8.68786573e-01, 9.23527479e-01, 3.26475441e-01, 3.14671159e-01,
          -3.17937881e-01, -8.36448252e-01, -2.02528417e-01,
          -9.49069783e-02, -2.12647766e-02, -4.79176641e-02,
          3.95174801e-01, 9.41890776e-01, 3.74186397e-01,
          -8.77034068e-01, -7.74484361e-03, 1.37835264e-01,
          9.37304556e-01, 5.37815318e-02, -1.00348461e+00,
          -8.38383734e-01, -1.57018709e+00, -3.75623792e-01,
          3.81023675e-01, 4.16188747e-01, 2.36835107e-01, 6.19256608e-02,
          1.79435179e-01, 4.86170501e-01, -1.35166717e+00,
          -3.40035647e-01, -2.80761033e-01, -2.70641178e-01,
          1.16531813e+00, 7.70669520e-01, 4.83596958e-02,
          -4.97296542e-01, -2.46384725e-01, 1.03195429e+00,
          1.00316870e+00, 1.17096388e+00, 1.26090956e+00, 1.45285118e+00,
          1.52084279e+00, -1.35044485e-01, -7.36010730e-01,
          -4.55857456e-01, 2.46949360e-01, 3.14083695e-01,
          -3.28667730e-01, -5.03579080e-01, 9.32167113e-01,
          8.89821291e-01, -1.15760815e+00, -4.15198952e-02,
          1.21179298e-01, 6.64226234e-01, 4.47717875e-01,
          -6.19908750e-01, -1.08927116e-01, 5.53398371e-01,
          -5.96026421e-01 ]
      - [ 1.14667237e-01, -2.55511124e-02, 4.20597121e-02,
          2.26281267e-02, 3.87214005e-01, -1.18051633e-01,
          -4.89573628e-01, -1.72502860e-01, 2.57706195e-01,
          5.72288632e-01, 2.74219140e-02, 3.66844088e-02,
          -5.23574091e-02, 2.47261539e-01, 7.09834516e-01,
          3.96458417e-01, -3.77940610e-02, 3.88687178e-02,
          -3.94978613e-01, -1.93706349e-01, 2.70356417e-01,
          -1.42511666e-01, 2.03444615e-01, 1.44309020e+00,
          1.43308163e+00, 5.54941356e-01, -5.69800138e-01,
          -9.76453841e-01, -6.08009398e-01, 1.14012778e-01,
          9.49573457e-01, 6.56008482e-01, -6.57941699e-01,
          1.86995059e-01, -4.10436213e-01, 1.66006401e-01,
          4.23701972e-01, -6.38693511e-01, -1.44154141e-02,
          1.13890044e-01, -4.20559376e-01, -3.53718281e-01,
          -6.71749234e-01, -7.44141340e-01, 2.94207543e-01,
          6.53156579e-01, 2.33604878e-01, 1.96466371e-01, 4.92972255e-01,
          -1.31129250e-01, 4.67112273e-01, 5.26038110e-01,
          -1.04174900e+00, -8.02505851e-01, -3.45041722e-01,
          -1.31724465e+00, -5.24686515e-01, -9.74080384e-01,
          -7.42986858e-01, 1.82419896e-01, 7.81806350e-01,
          -1.12848897e-02, 4.59628493e-01, 5.69208145e-01 ]
      - [ 3.23959440e-01, -8.14358592e-01, -4.51233238e-01,
          2.99340069e-01, 7.99995482e-01, 8.73542130e-02,
          -1.11535728e-01, -3.47175688e-01, -5.51472485e-01,
          -8.41348469e-01, -6.77464426e-01, -1.57998502e-01,
          -5.93899012e-01, 4.45252568e-01, 1.27240014e+00,
          1.45262635e+00, -1.38058269e+00, -8.45440924e-01,
          -1.11015999e+00, 6.18544631e-02, 4.39316958e-01,
          6.34430885e-01, 4.63203281e-01, 7.47378707e-01,
          -5.74077010e-01, 1.09443355e+00, -1.96044907e-01,
          -3.54625136e-01, 2.25006804e-01, 7.88246036e-01,
          1.53668892e+00, -3.20615798e-01, -2.71391451e-01,
          -1.03256333e+00, -1.32850611e+00, -1.28597927e+00,
          -1.32736588e+00, -1.53545463e+00, -1.34571779e+00,
          1.30686438e+00, 1.61601818e+00, 6.06096268e-01, 1.48033872e-01,
          -6.08492434e-01, -1.69556126e-01, 2.91162252e-01,
          -6.81388319e-01, 5.60484407e-03, -1.81253033e-03,
          -1.07392848e+00, 3.06048155e-01, 6.00940287e-01,
          3.90357673e-01, 1.62657887e-01, -5.55020750e-01,
          -1.98892701e+00, -1.04560661e+00, -3.61510545e-01,
          -6.65450215e-01, 1.88011122e+00, 2.04672050e+00,
          6.17406890e-02, -1.35925665e-01, 8.90011266e-02 ]
      - [ -6.89882040e-01, 6.58614397e-01, 1.77536860e-01,
          3.84974360e-01, 2.20705792e-01, 1.77026108e-01,
          -2.17156529e-01, -1.27838898e+00, -1.14058268e+00,
          -4.80503172e-01, -1.24379635e-01, -2.96320021e-01,
          -4.48240429e-01, -1.30524263e-01, 2.29088709e-01,
          7.55888894e-02, -7.55323291e-01, 7.45675147e-01,
          1.45532262e+00, 1.75930536e+00, 4.75640178e-01,
          -3.21091771e-01, -1.56769976e-01, -2.05227351e+00,
          7.17871487e-01, 1.10639882e+00, 1.65331674e+00, 3.65446061e-01,
          8.42698038e-01, 1.63212866e-01, -3.14108014e-01,
          -1.86609423e+00, 4.48094100e-01, 2.72270977e-01,
          -1.42513722e-01, -8.29191729e-02, 4.92407978e-02,
          8.47285509e-01, -6.53236210e-01, -8.79290462e-01,
          -1.41003609e-01, 7.77526259e-01, 9.69348609e-01,
          9.33273673e-01, 1.53576326e+00, 1.43106675e+00,
          -1.80492163e-01, -1.94302356e+00, -1.43677425e+00,
          1.73147082e+00, 8.50471675e-01, -6.60072267e-02,
          1.05972147e+00, 1.36255956e+00, 1.70520413e+00,
          -1.81816232e+00, -1.67681837e+00, 9.85597491e-01,
          1.58322537e+00, 5.85576415e-01, -5.21950126e-01,
          1.30983090e+00, 1.20389462e+00, -2.94027090e+00 ]
      - [ -3.30921233e-01, 3.98142517e-01, -3.54568698e-02,
          -4.60787863e-01, -3.81476730e-01, -2.91915476e-01,
          -7.36051977e-01, -1.29352891e+00, -2.99841285e-01,
          4.00590271e-01, 2.54979171e-02, -1.00605182e-01,
          2.29496788e-02, -2.93438017e-01, 3.41200903e-02,
          1.55522907e-02, 6.52854323e-01, 9.03837681e-01, 7.30091393e-01,
          4.74476218e-01, 5.02777755e-01, 4.49517071e-01, 1.08435237e+00,
          1.10866761e+00, 2.77587628e+00, 1.50842130e+00, 8.15531194e-01,
          -8.07292402e-01, 1.69372931e-02, -2.83746030e-02,
          1.05314426e-01, 3.27433199e-01, 3.60759199e-01, 5.20111680e-01,
          -2.22854406e-01, -7.14744449e-01, 1.04187690e-01,
          2.74254888e-01, -8.56642202e-02, -5.31023592e-02,
          -1.87391973e+00, -1.13850999e+00, -1.41291153e+00,
          -1.18400443e+00, 6.29503369e-01, 8.64322364e-01,
          6.03762805e-01, -7.64219999e-01, 1.48565276e-02,
          1.57671952e+00, 9.07741070e-01, 1.15948522e+00, 4.13026750e-01,
          -4.95619625e-01, 1.99711069e-01, -1.61702335e+00,
          -2.67764163e+00, -1.09672105e+00, -2.56188869e-01,
          4.01129723e-01, 8.75056684e-01, 1.44467080e+00, 5.50678015e-01,
          -2.13910532e+00 ]
      - [ 6.47045448e-02, -2.47119442e-02, -9.58600119e-02,
          -2.66119950e-02, 2.98325777e-01, -3.97999249e-02,
          -6.95638895e-01, -1.24756873e+00, -1.25168324e+00,
          -1.13420618e+00, -5.30185401e-01, -1.96320936e-01,
          -6.67722344e-01, 1.75103307e-01, 7.56935000e-01,
          1.15842068e+00, -1.44119680e+00, -1.91235561e-02,
          4.33355838e-01, 1.11471403e+00, 1.04425883e+00, 1.27538073e+00,
          1.24840891e+00, 6.99516416e-01, 9.71454084e-01, 2.04825473e+00,
          1.31925786e+00, 5.80932274e-02, 1.08873713e+00, 8.31914663e-01,
          1.30634773e+00, -8.52688968e-01, 6.93067908e-01,
          -9.30394769e-01, -1.43794906e+00, -2.46059299e+00,
          -1.83405685e+00, -6.99702382e-01, -1.53251362e+00,
          9.80464756e-01, 6.13970280e-01, 5.19856274e-01, 2.76954263e-01,
          -9.56388652e-01, -1.04117118e-01, 9.15031135e-01,
          -5.10982931e-01, -1.35278094e+00, -5.10548592e-01,
          7.89623499e-01, 8.26771557e-01, 5.30718327e-01, 1.70372021e+00,
          7.87514806e-01, 2.92340457e-01, -2.15161347e+00,
          -2.85423064e+00, -7.56452680e-02, -5.84024973e-02,
          1.97504997e+00, 1.71741569e+00, 1.28384340e+00, 1.00630365e-01,
          -2.59643888e+00 ]
      - [ 2.67833412e-01, -1.53187126e-01, 1.22277729e-01,
          -7.44174659e-01, -6.53407216e-01, -5.34149349e-01,
          -9.12958384e-01, -1.53159052e-01, 1.21904218e+00,
          8.33427966e-01, 1.21725276e-01, 1.39293954e-01,
          -5.95676946e-03, -7.21486211e-02, -1.20643400e-01,
          9.81598720e-02, 7.24050045e-01, -7.52272690e-03,
          -8.55106175e-01, -1.57399285e+00, 5.82248494e-02,
          1.03623044e+00, 1.28810441e+00, 3.32959819e+00, 1.95752013e+00,
          4.66056436e-01, -7.12002099e-01, -1.33445358e+00,
          -7.74258018e-01, -1.25838086e-01, 3.59672457e-01,
          1.47365761e+00, -4.30012822e-01, 2.80774802e-01,
          1.56120270e-01, -2.72554159e-01, -1.38597161e-01,
          -8.86635721e-01, 1.50991127e-01, 8.78431052e-02,
          -1.74156320e+00, -1.36013508e+00, -1.42449737e+00,
          -1.68816829e+00, -9.81287122e-01, -6.45812988e-01,
          6.07433081e-01, 1.32833707e+00, 8.43995988e-01,
          -4.18828487e-01, 4.58874166e-01, 1.62450922e+00,
          -7.19996035e-01, -1.97224438e+00, -1.48172522e+00,
          -5.25659382e-01, -1.38884306e+00, -1.77601898e+00,
          -1.65584540e+00, 7.86119178e-02, 2.07652903e+00,
          8.46115291e-01, -2.30391726e-01, 1.21619201e+00 ]
      - [ 1.27597213e+00, -1.04552984e+00, -4.77621943e-01,
          -5.67343354e-01, -3.35419215e-02, -1.89990640e-01,
          -3.95108104e-01, 5.63809052e-02, -4.76661414e-01,
          -1.25822961e+00, -5.50198674e-01, -1.67374820e-01,
          -5.68046451e-01, 1.19223386e-01, 3.65537941e-01,
          1.12544465e+00, -8.20007384e-01, -9.36148465e-01,
          -1.03699911e+00, -7.66919911e-01, 4.31112796e-01,
          1.57964838e+00, 1.39323187e+00, 2.33764839e+00,
          -4.99238968e-01, 5.08539259e-01, -3.44705552e-01,
          -4.73404080e-01, 2.47995540e-01, 6.36960983e-01,
          1.09986353e+00, 6.12700105e-01, 4.13148671e-01,
          -8.66926968e-01, -1.64439559e+00, -2.18346596e+00,
          -1.70957685e+00, -2.00999212e+00, -1.05280399e+00,
          1.83667731e+00, 9.87744033e-01, -1.53937832e-01,
          -6.68133616e-01, -1.43208265e+00, -1.30366349e+00,
          -9.82303917e-01, -8.17590833e-01, 1.07190251e+00,
          4.04509932e-01, -1.43038809e+00, 5.52688241e-02,
          1.23841739e+00, 1.23452294e+00, -7.93310523e-01,
          -1.80965841e+00, -1.13624334e+00, -1.46983409e+00,
          -1.16343033e+00, -1.42517710e+00, 2.01638937e+00,
          3.12218070e+00, 3.50038230e-01, -8.01529884e-01,
          4.63639408e-01 ]
      - [ 1.05372596e+00, -5.93988776e-01, -6.97157323e-01,
          -2.20147312e-01, 3.23437840e-01, 3.74060750e-01,
          5.65860391e-01, 1.43517137e-01, -1.12454474e+00,
          -1.72923505e+00, -8.20087969e-01, -5.05080640e-01,
          -6.01802051e-01, 2.00305492e-01, 7.02685416e-01,
          1.28172553e+00, -2.25525904e+00, -9.76237178e-01,
          -3.37303877e-01, 7.66683936e-01, 1.44749284e-01,
          6.20936096e-01, -7.95311928e-02, -6.10073626e-01,
          -1.92816985e+00, 7.05856740e-01, 6.57973289e-01,
          8.94842565e-01, 1.18411386e+00, 8.47647071e-01, 8.70267451e-01,
          -7.65718699e-01, 5.39047241e-01, -1.59456289e+00,
          -1.43661535e+00, -1.79782641e+00, -1.85233200e+00,
          -1.52442229e+00, -1.75337267e+00, 1.62796557e+00,
          2.58933020e+00, 1.18686461e+00, 1.26310015e+00, 1.61927968e-01,
          -9.04899120e-01, -6.73458397e-01, -1.65273905e+00,
          -6.36534154e-01, 7.20478296e-02, -1.09532523e+00,
          -3.15769278e-02, -1.18927673e-01, 1.42354691e+00,
          1.18886495e+00, 1.61685690e-01, -1.30576169e+00,
          -5.83258867e-01, 5.47684252e-01, 3.69601071e-01,
          2.45141101e+00, 9.66406047e-01, 1.72197726e-02,
          -5.41532755e-01, 2.28853077e-02 ]
   decision_functions:
      -
         sv_count: 1
         rho: 1.0566494643106084e+00
         alpha: [ 1. ]
         index: [ 0 ]
      -
         sv_count: 1
         rho: 5.8635058409438889e-01
         alpha: [ 1. ]
         index: [ 1 ]
      -
         sv_count: 1
         rho: 6.1378273130659589e-01
         alpha: [ 1. ]
         index: [ 2 ]
      -
         sv_count: 1
         rho: 1.2687265046837772e+00
         alpha: [ 1. ]
         index: [ 3 ]
      -
         sv_count: 1
         rho: 5.5372392820875294e-01
         alpha: [ 1. ]
         index: [ 4 ]
      -
         sv_count: 1
         rho: -1.8186151406737722e-01
         alpha: [ 1. ]
         index: [ 5 ]
      -
         sv_count: 1
         rho: 2.0891171849779369e-01
         alpha: [ 1. ]
         index: [ 6 ]
      -
         sv_count: 1
         rho: 6.7473966816154529e-01
         alpha: [ 1. ]
         index: [ 7 ]
      -
         sv_count: 1
         rho: -5.9259660350304234e-03
         alpha: [ 1. ]
         index: [ 8 ]
      -
         sv_count: 1
         rho: 3.1996953000573808e-01
         alpha: [ 1. ]
         index: [ 9 ]
      -
         sv_count: 1
         rho: 7.4710518704094819e-01
         alpha: [ 1. ]
         index: [ 10 ]
      -
         sv_count: 1
         rho: 2.1860720984414225e-01
         alpha: [ 1. ]
         index: [ 11 ]
      -
         sv_count: 1
         rho: 4.7599515739282694e-01
         alpha: [ 1. ]
         index: [ 12 ]
      -
         sv_count: 1
         rho: 4.5618321448825744e-02
         alpha: [ 1. ]
         index: [ 13 ]
      -
         sv_count: 1
         rho: -1.6303766452869500e-01
         alpha: [ 1. ]
         index: [ 14 ]
