%YAML:1.0
---
opencv_ml_svm:
   format: 3
   svmType: C_SVC
   kernel:
      type: LINEAR
   C: 2.6699999999999999e+00
   term_criteria: { epsilon:1.1920928955078125e-07, iterations:1000 }
   var_count: 1764
   class_count: 2
   class_labels: !!opencv-matrix
      rows: 2
      cols: 1
      dt: i
      data: [ 0, 1 ]
   sv_total: 1
   support_vectors:
      - [ -3.49787325e-02, 4.04705182e-02, 5.30774854e-02,
          2.87105236e-02, 2.45407000e-02, -4.69161682e-02,
          -6.67184144e-02, -2.28359667e-03, 8.91616270e-02,
          4.29702550e-02, 1.43584624e-01, 7.66102299e-02, 7.36393631e-02,
          1.23272076e-01, 8.71326178e-02, -5.23528196e-02,
          6.14093319e-02, -1.48092229e-02, 4.23474284e-03,
          -1.07521318e-01, -2.03268249e-02, 2.13922970e-02,
          7.83207640e-02, -3.90897207e-02, -6.10398501e-02,
          -5.87378144e-02, 1.01483263e-01, 8.63754097e-03,
          -1.95646100e-02, 1.16007060e-01, 4.14694361e-02,
          1.42098125e-02, 2.43700612e-02, 1.19937854e-02,
          -1.79609600e-02, 1.67738013e-02, -5.24128613e-04,
          1.64235309e-01, -8.61603580e-03, 5.72321843e-03,
          1.40529588e-01, 8.98942277e-02, -4.66770008e-02,
          6.11724146e-02, -6.00582249e-02, 1.86652709e-02,
          9.88690853e-02, -1.28392205e-01, -3.92357707e-02,
          4.42040898e-02, 5.59916198e-02, 6.68423101e-02, 5.75926714e-02,
          2.51663364e-02, -3.68446708e-02, 3.82645875e-02,
          -2.84370072e-02, -1.73456408e-02, 4.43027429e-02,
          1.02297895e-01, 5.11580706e-02, 5.00981510e-02, 6.33351430e-02,
          6.35128021e-02, -1.08675137e-01, -1.00078091e-01,
          -5.97218946e-02, 1.87843535e-02, 5.78834414e-02,
          1.45455778e-01, 1.66132703e-01, 1.01753540e-01, 9.71966237e-03,
          1.20977610e-01, -9.81079116e-02, -3.08686402e-02,
          -5.83767612e-03, 2.84699984e-02, -4.28104168e-03,
          -7.60303363e-02, 3.78228398e-03, 2.63141003e-02,
          2.61703432e-01, 1.11760534e-01, 1.01945110e-01,
          -1.95292179e-02, -7.63551220e-02, -1.79693341e-01,
          -2.44674280e-01, -6.68375269e-02, 9.50388834e-02,
          -5.87447509e-02, -1.54003948e-02, -4.25041020e-02,
          3.83399986e-02, 3.86669077e-02, 1.44735664e-01, 3.74598131e-02,
          5.08245826e-02, -4.00847867e-02, -2.28925440e-02,
          -1.02604322e-01, -1.62065998e-02, 1.59565620e-02,
          -5.13412133e-02, 3.30618815e-03, -1.20371208e-01,
          -9.36706439e-02, 8.31388962e-03, 2.04363137e-01,
          1.05818979e-01, 1.08951904e-01, -7.47597171e-03,
          -1.33717909e-01, -1.59556314e-01, -1.81379288e-01,
          -5.91652170e-02, 3.40808788e-03, 7.95989856e-02,
          2.29412261e-02, 7.36746788e-02, 1.34908678e-02,
          -1.27139427e-02, -1.78571895e-01, -3.24118920e-02,
          3.87800373e-02, -2.89419070e-02, 3.32235312e-03,
          -1.67793915e-01, -3.78022492e-02, 2.03600898e-03,
          -1.58209175e-01, -6.64184168e-02, -1.64011102e-02,
          -1.83185395e-02, -8.55071321e-02, -5.22095768e-04,
          -8.52263719e-02, 1.07464567e-02, -3.31917070e-02,
          -6.96900561e-02, 3.08264960e-02, 1.34190023e-01,
          3.47975343e-02, 1.95993688e-02, 3.03490646e-02,
          -8.76083300e-02, 2.74419188e-02, 3.57982852e-02,
          6.09866402e-04, -1.46290809e-01, 1.72844750e-03,
          5.98047860e-03, 4.54253666e-02, 3.12757567e-02,
          -3.56547795e-02, -1.40749589e-02, -7.99259692e-02,
          -5.35522252e-02, -2.43538078e-02, -1.63335223e-02,
          -2.85752919e-02, -9.16254073e-02, 1.54661397e-02,
          -6.10096641e-02, 5.39083742e-02, -3.73118259e-02,
          -2.91626081e-02, 8.31772760e-03, 8.65923911e-02,
          -1.82727519e-02, 2.75928024e-02, 1.16573274e-01,
          1.73284579e-02, 3.56078260e-02, -1.15239188e-01,
          -7.96506107e-02, -5.56938350e-02, 8.54258332e-03,
          -1.79442130e-02, -4.08966355e-02, -3.23874352e-04,
          -5.32724969e-02, -5.23824878e-02, -2.71641705e-02,
          1.24573568e-03, 7.90854171e-02, -2.21756827e-02,
          -1.06683269e-01, -2.64381059e-02, 3.57537493e-02,
          -3.55809368e-02, -2.68696286e-02, 7.50490949e-02,
          5.80893010e-02, 4.74289358e-02, 1.69361290e-02,
          -1.06372699e-01, -2.55264696e-02, 1.04118757e-01,
          5.87163633e-03, -1.55375544e-02, -6.70614615e-02,
          -1.00751244e-01, -4.04404067e-02, -5.55937998e-02,
          -5.37278689e-02, 4.76217531e-02, 8.39563683e-02,
          -9.20443423e-03, -3.18004214e-03, 4.96182218e-02,
          7.85691738e-02, 5.12482747e-02, -8.58128592e-02,
          -9.86513048e-02, -1.41394315e-02, 6.44130707e-02,
          2.65196357e-02, -3.46075594e-02, 5.24888672e-02,
          6.28015473e-02, 2.56709754e-02, 5.67604080e-02,
          -1.00188181e-01, 2.23793834e-02, 2.76347250e-02,
          1.18369982e-02, -1.08274579e-01, -2.34290604e-02,
          1.04793146e-01, 1.61769930e-02, 9.22391564e-02,
          -1.16291726e-02, -3.67170013e-02, -9.74931847e-03,
          -7.17699602e-02, 1.83505111e-03, 2.91963015e-02,
          2.08842270e-02, -4.72129770e-02, -7.18221739e-02,
          -1.26080930e-01, 2.29577697e-03, 2.28260197e-02,
          4.32376787e-02, 1.33482441e-02, 7.70705417e-02, 4.83817421e-02,
          -5.54605760e-02, -9.80629548e-02, -1.13239504e-01,
          -2.89251450e-02, -2.30545830e-03, -3.30146104e-02,
          -6.78742751e-02, 3.38064320e-02, -9.62758735e-02,
          -8.09337348e-02, -6.08158521e-02, -1.45278452e-02,
          6.23565316e-02, 6.38521314e-02, 1.87346488e-01,
          -5.15179615e-03, -4.48008254e-02, -6.24681897e-02,
          -7.21574351e-02, -7.56080821e-02, -5.20747155e-02,
          8.20014030e-02, 1.52155682e-01, -4.56421683e-03,
          -1.23964615e-01, -1.11051314e-01, -8.54859278e-02,
          -6.17501326e-02, -4.92287874e-02, -4.81813625e-02,
          1.79085195e-01, 2.26302862e-01, 1.29693016e-01,
          -1.15501367e-01, -8.52261335e-02, -6.92819357e-02,
          -8.37874636e-02, -1.19481906e-02, 5.76469377e-02,
          -1.84552949e-02, 1.02134652e-01, -1.55926915e-02,
          -1.18465513e-01, 1.92984380e-02, 7.62987370e-03,
          1.37880594e-02, 4.21164278e-03, 2.51814816e-02, 6.03974015e-02,
          3.37412171e-02, 2.47446615e-02, -3.72675806e-02,
          2.61421930e-02, 5.67045324e-02, 9.38319415e-02, 4.96568084e-02,
          4.46243770e-02, 5.58737665e-02, 1.23852216e-01, 1.78708490e-02,
          -1.67499274e-01, -5.31313643e-02, -4.37101498e-02,
          -3.09598036e-02, 4.41822596e-02, 8.55579153e-02,
          -4.43224935e-03, 6.00477792e-02, -1.27773704e-02,
          -3.83936837e-02, 2.22594757e-02, -8.82428838e-04,
          3.60865220e-02, 8.42461362e-02, -8.99386778e-03,
          1.02519803e-01, -1.86617449e-02, 1.13144174e-01,
          2.93540303e-03, -3.70234177e-02, 8.96467417e-02,
          1.65714830e-01, 2.22882535e-02, -4.24786620e-02,
          -1.35227405e-02, -1.34217098e-01, -8.46971571e-02,
          -8.36425945e-02, -3.94236967e-02, -2.08047961e-04,
          1.08735949e-01, 3.96321006e-02, 2.55360641e-02, 6.12613745e-02,
          -5.14762802e-03, 3.91094349e-02, -5.99471778e-02,
          -9.80575755e-03, 1.02359571e-01, 1.05101191e-01,
          -3.85208637e-03, -3.67504135e-02, -4.04783674e-02,
          -1.17196530e-01, -9.63906720e-02, -2.11363927e-01,
          -2.42001866e-03, 8.41301084e-02, 7.89845437e-02,
          -5.98136745e-02, -6.86820447e-02, -7.91204795e-02,
          -1.60373285e-01, -2.23863542e-01, -1.12125419e-01,
          -2.37917006e-02, 2.49048099e-02, 8.75540227e-02,
          1.72272727e-01, 1.10772870e-01, -3.90914939e-02,
          -2.49852054e-02, -1.14071257e-01, -7.14804828e-02,
          -1.57338101e-02, -3.00337896e-02, 1.07764475e-01,
          1.54961631e-01, 3.65704224e-02, -9.53715518e-02,
          -1.10713318e-01, -1.60807088e-01, -8.99661034e-02,
          5.87930456e-02, 1.31717935e-01, 8.50291029e-02, 1.11621956e-03,
          -4.13717031e-02, -4.97262506e-03, 2.30204631e-02,
          -2.78027300e-02, -1.23996250e-01, 1.22105442e-01,
          2.21917382e-03, 2.18510758e-02, 5.05421199e-02,
          -1.48647455e-02, -6.10088222e-02, -2.02232506e-02,
          -5.53649738e-02, 3.67817581e-02, 2.53285468e-02,
          -1.00691570e-02, 7.48171881e-02, 4.46909107e-02,
          -1.31884608e-02, -1.68287624e-02, 2.84625553e-02,
          1.59089621e-02, 1.33246183e-01, 2.92610135e-02,
          -7.69695789e-02, -7.38925263e-02, -2.95215547e-02,
          -1.68314371e-02, -7.17053041e-02, 5.14229536e-02,
          3.44131514e-02, -1.05114892e-01, 3.07371002e-03,
          -3.37378196e-02, -3.62616144e-02, 1.10942582e-02,
          -1.17599852e-01, 4.63276841e-02, -1.13658030e-02,
          3.59848216e-02, 5.42109832e-02, 4.45591435e-02,
          -2.60527581e-02, -5.30052073e-02, -1.98311228e-02,
          -4.12666090e-02, 6.33269697e-02, 1.01447897e-02,
          -3.56455855e-02, 1.67889837e-02, -5.41346520e-02,
          -5.47468662e-02, -8.16385821e-02, -7.27060363e-02,
          6.87169954e-02, 5.20806164e-02, -6.21570870e-02,
          -5.21042943e-02, -2.76371110e-02, 1.65698342e-02,
          -2.12577824e-02, -7.43230283e-02, -6.72399998e-02,
          3.46485600e-02, 6.16475493e-02, -6.40405938e-02,
          -1.23191603e-01, 5.05243661e-03, -3.57975997e-03,
          7.29246363e-02, -3.61401681e-03, 3.59367160e-03,
          5.80651760e-02, -3.72099839e-02, 5.50697185e-03,
          -8.65778979e-03, -8.17127377e-02, -5.26822731e-02,
          -3.47901019e-04, 6.26931041e-02, 7.48370215e-02,
          2.49850601e-02, 1.49109913e-02, -7.30370730e-02,
          -1.00129038e-01, 1.59196481e-02, 1.62658431e-02,
          -4.82954755e-02, 1.70395896e-02, -4.33779880e-03,
          2.91388836e-02, 1.54625222e-01, 1.38709415e-02, 1.83746908e-02,
          5.07690944e-02, 1.22049622e-01, 1.45730982e-02, 5.40045984e-02,
          2.50178501e-02, 3.82745750e-02, -9.59558561e-02,
          -6.83924854e-02, -6.74072132e-02, -7.34597966e-02,
          -1.31092863e-02, -6.30877465e-02, 5.95930740e-02,
          4.43093590e-02, -3.34988460e-02, -1.08764254e-01,
          -8.34721699e-02, -5.29802144e-02, 1.39434682e-02,
          4.73990925e-02, -2.61024013e-02, -1.70424264e-02,
          -3.24140973e-02, -5.72434515e-02, 1.12329632e-01,
          1.67143524e-01, 3.31407483e-03, -1.02174416e-01,
          -1.72514588e-01, -9.00318772e-02, -6.32718131e-02,
          -5.22235408e-02, -6.11557178e-02, 1.90431222e-01,
          2.22377628e-01, 3.57834958e-02, -1.37547225e-01,
          -6.20213449e-02, -2.87536141e-02, -8.79144147e-02,
          -4.92040142e-02, -3.42836455e-02, 9.96408425e-03,
          -5.14689088e-02, -1.01579376e-01, -2.53721684e-01,
          -1.30723089e-01, 9.29908548e-03, 4.06494327e-02,
          5.71605116e-02, 6.38964102e-02, 7.84084871e-02, 5.34920320e-02,
          -5.12141027e-02, -1.15461059e-01, -4.64812629e-02,
          2.44063679e-02, -1.86230836e-03, -1.11490786e-02,
          -5.29639311e-02, 8.57773498e-02, 9.55961049e-02,
          -7.90545624e-03, -7.23979399e-02, 4.83957902e-02,
          -6.59175143e-02, -1.00986026e-01, 3.74277239e-03,
          5.07729836e-02, 7.60987923e-02, 3.24362852e-02, 1.13886595e-02,
          -4.46979590e-02, 7.60501996e-02, -3.75689864e-02,
          -4.43655215e-02, 7.25996494e-02, 4.15109806e-02,
          4.17877622e-02, 5.72596528e-02, -1.77771226e-02,
          -1.02574611e-02, -5.43810148e-03, -2.05501411e-02,
          -2.28349604e-02, -1.33370394e-02, 6.12770813e-03,
          3.07043344e-02, 1.83161963e-02, 3.19654830e-02,
          -7.78875407e-03, 9.39724594e-03, -3.98822501e-02,
          -6.80796131e-02, 9.68680978e-02, -1.66082904e-02,
          9.18076858e-02, -3.53869013e-02, 4.48061265e-02,
          -3.85266654e-02, 5.90711553e-03, 2.31506303e-03,
          3.13095339e-02, -3.30419727e-02, 3.02410778e-02,
          -6.87297732e-02, -8.11364949e-02, -9.09572542e-02,
          -1.37948513e-01, 4.85380031e-02, 2.14898344e-02,
          -3.21089430e-03, -1.45640463e-01, -2.91345157e-02,
          6.20053075e-02, -4.57178988e-03, 4.15135436e-02,
          -4.99311425e-02, 2.88816392e-02, -1.64617166e-01,
          -6.84922785e-02, 5.39961085e-02, 6.44764081e-02,
          -3.58560793e-02, -1.24167167e-02, 3.16330194e-02,
          8.03850126e-03, 6.59362748e-02, -3.30578648e-02,
          -6.38951212e-02, -6.67889491e-02, 4.37498204e-02,
          -1.07519321e-01, -3.17301042e-02, -5.41753210e-02,
          -1.02086075e-01, 8.85471329e-02, 1.17208153e-01,
          5.71216941e-02, -9.74582434e-02, -8.88262391e-02,
          -1.23596452e-02, 1.46675827e-02, 2.99823917e-02,
          3.57308332e-03, 1.52643561e-01, -1.88112911e-02,
          -1.12171089e-02, -2.73150261e-02, -2.73223985e-02,
          -1.26922071e-01, -6.49645105e-02, 9.32825077e-03,
          9.65376645e-02, 5.45910373e-02, -5.44837443e-03,
          -2.05079988e-02, -1.46119937e-01, -1.88827310e-02,
          2.30469704e-02, -8.46870914e-02, -1.01143541e-02,
          8.62001330e-02, 7.58072659e-02, -1.45991907e-01,
          -7.11082816e-02, -1.02645151e-01, 3.14012519e-03,
          2.38586813e-02, 7.64236599e-02, 6.33418187e-02,
          -4.83186692e-02, 8.09568465e-02, -2.34482568e-02,
          4.18224838e-03, 4.93895486e-02, -1.71137191e-02,
          3.55505534e-02, -6.01353182e-04, -4.17772010e-02,
          -9.15282890e-02, 1.26214683e-01, 6.70752674e-02,
          8.23532268e-02, 8.13190117e-02, 3.35904211e-02, 8.37043822e-02,
          -6.54786499e-03, -3.17796576e-03, 1.13565018e-02,
          9.62863117e-03, -1.14770025e-01, -4.90314476e-02,
          -3.51389498e-02, -7.24987239e-02, 9.28731263e-03,
          1.54739898e-02, -1.45859886e-02, -4.41287383e-02,
          1.03330975e-02, 3.45233120e-02, 7.46656507e-02,
          -8.54931846e-02, -4.65294831e-02, 9.93285794e-03,
          -6.64199591e-02, -1.38253823e-01, -2.05914244e-01,
          5.99383600e-02, 5.47596179e-02, 1.22987088e-02,
          -1.65047161e-02, 2.92681772e-02, 5.07843047e-02,
          -2.68657401e-04, -2.75143757e-02, -1.26802772e-01,
          -1.45418989e-02, 4.47089988e-04, 4.22320031e-02,
          9.58172530e-02, 3.23907589e-03, 2.27154866e-02,
          -3.17546912e-02, -5.82201891e-02, -1.50264084e-01,
          3.06629594e-02, -2.96538556e-03, 3.62819969e-03,
          -1.80605277e-01, 2.25569792e-02, 6.70815781e-02,
          6.49747923e-02, -5.01709292e-03, -1.05875559e-01,
          7.56680965e-02, -2.98100691e-02, 1.23434365e-01,
          7.75010288e-02, 1.06170541e-02, -5.44675775e-02,
          -3.67257744e-02, -1.63463317e-02, -5.09708561e-02,
          -5.19363321e-02, -2.03316985e-03, 1.23901153e-02,
          9.64367315e-02, -4.41296846e-02, -1.71203926e-01,
          -9.70546901e-02, -6.24261461e-02, -1.10027522e-01,
          -3.69861424e-02, -5.51785678e-02, -9.12898332e-02,
          -5.03709391e-02, -7.23264143e-02, 5.83194057e-03,
          4.59576212e-03, 1.61507837e-02, 3.70450728e-02, 6.96801469e-02,
          5.69994412e-02, 9.89728272e-02, 2.15091780e-01,
          -3.64421569e-02, -4.00198018e-03, -1.98283922e-02,
          2.08503567e-03, 7.50485016e-03, -2.39134077e-02,
          1.28937932e-02, 1.07366607e-01, 1.50138319e-01, 7.52295926e-03,
          -1.99767738e-03, -3.41313258e-02, -8.39811862e-02,
          -1.90224931e-01, 1.18210958e-03, 7.88896680e-02,
          1.10236280e-01, 9.19847339e-02, 3.62488665e-02, 6.21406697e-02,
          6.83589354e-02, -3.73743325e-02, -5.36545292e-02,
          2.19281018e-02, 8.21244568e-02, 9.22363251e-02, 4.31190357e-02,
          2.91654039e-02, -1.34637356e-01, -4.72380035e-02,
          -3.56128812e-02, -1.02801122e-01, 1.26962826e-01,
          1.12182744e-01, 1.33582041e-01, 6.85574114e-02,
          -1.07173882e-01, -6.43259063e-02, -4.97544035e-02,
          -3.48662436e-02, 7.74324238e-02, -5.10205254e-02,
          2.34843884e-02, 3.38099971e-02, 1.00412983e-02, 4.43375669e-02,
          2.60150600e-02, 6.75267130e-02, 4.25431319e-02, 3.18184458e-02,
          4.30209264e-02, 2.24962924e-02, 1.03938840e-01, 6.14420772e-02,
          2.87877750e-02, 5.85989505e-02, 9.18546226e-03,
          -7.92545900e-02, -9.33885127e-02, 5.03420969e-03,
          3.75828594e-02, 1.45535693e-01, 2.36278802e-01, 1.68923721e-01,
          -9.16626751e-02, -1.40784997e-02, -5.98758869e-02,
          1.35908546e-02, -4.46939580e-02, -4.04334106e-02,
          -4.06678468e-02, -4.22337931e-03, 4.66270186e-02,
          -1.29031800e-02, -1.65983420e-02, -2.09651574e-01,
          -8.86810422e-02, -9.39180553e-02, -1.96064953e-02,
          3.34053338e-02, 3.57986540e-02, 9.39895511e-02, 7.41152167e-02,
          -2.40175296e-02, -7.46568888e-02, -1.14440791e-01,
          -2.15655752e-02, -4.73744050e-02, 4.68172021e-02,
          1.92595109e-01, 1.57945439e-01, 3.77820581e-02,
          -3.33879218e-02, 5.29899560e-02, -6.63471734e-03,
          -6.64226420e-04, -4.36159968e-02, -9.52818692e-02,
          9.07340944e-02, -1.47534895e-03, 2.17742417e-02,
          -3.25934552e-02, -2.66052276e-01, -1.27300218e-01,
          -1.22352734e-01, -3.86883924e-03, 7.34482780e-02,
          4.36987914e-02, 8.34565610e-02, 4.17494997e-02,
          -3.07161119e-02, -8.01850632e-02, -7.76099712e-02,
          -4.70447764e-02, 3.71372588e-02, -2.80220732e-02,
          -4.68243621e-02, 1.78707764e-02, -6.81754351e-02,
          -9.63032618e-02, 1.61846533e-01, 1.05129555e-01,
          5.18787391e-02, -3.27125266e-02, -9.57753062e-02,
          -8.44119564e-02, 1.45331782e-03, -1.67142544e-02,
          -9.09107998e-02, -1.88885350e-02, 1.18954547e-01,
          9.92527604e-02, -7.98662007e-02, -5.65332696e-02,
          -8.33158791e-02, 6.57464610e-03, 5.29911406e-02,
          3.01314965e-02, 3.57659683e-02, 5.63175827e-02, 2.28901841e-02,
          2.29768641e-02, -1.08951710e-01, -1.21663213e-01,
          1.81929395e-02, 5.41749671e-02, 3.73083018e-02, 6.65747523e-02,
          9.59707249e-04, 7.10545927e-02, -1.89876109e-02,
          -5.46179339e-03, -2.99734473e-02, 7.44850039e-02,
          3.51692103e-02, 1.69707474e-03, 2.43732613e-02, 7.23711262e-03,
          -6.42167926e-02, -1.36477947e-01, -3.23067419e-02,
          2.42282748e-02, -1.34982970e-02, -2.33874507e-02,
          4.60208766e-02, 1.16088934e-01, 1.02126881e-01,
          -2.10398640e-02, -7.52326921e-02, 1.09855253e-02,
          -7.19051808e-02, 2.34518293e-02, 1.95595566e-02,
          3.59118246e-02, 6.28403053e-02, -1.08206667e-01,
          -4.67546806e-02, -9.10806507e-02, 1.56675801e-02,
          6.61539957e-02, 4.03427333e-02, 3.67604420e-02, 9.56800058e-02,
          9.03101116e-02, 2.99710874e-02, -5.30520566e-02,
          -1.56428903e-01, -5.06749153e-02, -4.31388803e-02,
          -3.93614732e-02, 1.62584137e-03, -1.02713646e-03,
          4.64448705e-02, 4.45268862e-02, 2.14497540e-02,
          -7.43789971e-02, -3.86499427e-02, -1.22471787e-01,
          3.54235806e-02, 5.28772511e-02, 5.56806810e-02, 3.12618427e-02,
          -2.28863675e-02, 2.61780694e-02, 3.22999293e-03,
          3.27133015e-02, -2.93741282e-03, -1.37244342e-02,
          -9.35954135e-03, -5.47901504e-02, -7.93775916e-03,
          2.86032818e-02, -6.42532557e-02, -8.82452354e-02,
          -7.35000074e-02, -6.93938807e-02, 7.65368715e-03,
          -1.55560308e-04, -8.78330991e-02, 5.73992059e-02,
          4.05851111e-04, -5.22602955e-03, 4.79031242e-02,
          -2.89308950e-02, 3.98281217e-02, 3.08768507e-02,
          1.34220431e-02, 3.30957919e-02, -2.63245162e-02,
          1.32921308e-01, 6.68867603e-02, -3.06393243e-02,
          3.40436101e-02, 7.93122873e-02, -2.75814086e-02,
          3.65417413e-02, -2.78158616e-02, -4.80697788e-02,
          5.96838333e-02, 8.17338824e-02, -7.82282352e-02,
          -3.58129642e-03, 6.49446771e-02, 6.78594783e-02,
          4.56529018e-03, -8.40829313e-02, 2.79900301e-02,
          5.51659726e-02, -4.57828268e-02, -1.40517894e-02,
          -9.29066017e-02, -9.99123044e-03, -8.16130172e-03,
          -3.71634327e-02, -1.82591811e-01, -1.73157603e-01,
          -1.15627525e-02, 9.91833862e-03, -1.88065898e-02,
          -2.97426749e-02, -3.33889388e-02, 4.02725004e-02,
          -1.53914228e-01, -2.93362010e-02, -2.10449640e-02,
          -1.20759495e-01, 2.71976506e-03, -6.10895902e-02,
          1.38654292e-01, 7.65611827e-02, -7.64066800e-02,
          -1.17890947e-01, -9.65490490e-02, -9.84338969e-02,
          1.21425930e-02, -1.38488322e-01, -8.41593742e-02,
          -3.01331352e-03, 9.41652991e-03, 2.68344823e-02,
          -3.48956250e-02, -2.85974797e-03, -3.70445959e-02,
          -7.11961091e-02, -1.35272071e-01, -8.81683007e-02,
          1.30051106e-01, 2.80753732e-01, 1.21614806e-01,
          -7.68586919e-02, -4.92815115e-02, -7.34373555e-02,
          5.15433624e-02, -1.10129505e-01, -4.28072497e-04,
          1.36900470e-01, 2.89667875e-01, 7.90939182e-02,
          -3.33534218e-02, -1.46910222e-02, -2.70767305e-02,
          1.29517093e-01, -1.61204692e-02, -3.33976969e-02,
          6.41037986e-05, 2.03733519e-02, 5.05293123e-02,
          -2.94842087e-02, 2.21940968e-02, -1.08557232e-01,
          1.24410586e-02, -1.01997025e-01, -4.37511317e-02,
          2.55482756e-02, -2.80775316e-02, 2.35424042e-02,
          5.82352094e-02, 2.35326868e-02, 6.48492500e-02, 1.88863397e-01,
          -3.93097252e-02, -5.53140305e-02, -3.46805938e-02,
          1.16278343e-01, 8.86040330e-02, 1.32368907e-01, 1.53228268e-01,
          1.77328080e-01, -5.08768447e-02, 5.48168942e-02,
          -5.05917473e-03, -6.37094602e-02, 4.72639054e-02,
          9.67675261e-03, -8.17691814e-03, 2.50190850e-02,
          -9.32025909e-02, -9.21480283e-02, -1.36339933e-01,
          -8.30433331e-03, 3.20576355e-02, -8.34557265e-02,
          -3.45550328e-02, 4.41535152e-02, 6.75301552e-02,
          -4.26519699e-02, -5.07037975e-02, -7.37102479e-02,
          1.05724961e-01, 7.96212852e-02, -8.92086402e-02,
          -1.22874685e-01, 1.28153309e-01, 7.90894702e-02,
          3.28104794e-02, -5.86366765e-02, -1.18164271e-02,
          9.90563771e-04, -3.02697672e-03, 5.12668118e-03,
          -2.24018446e-03, 7.10081011e-02, 4.96758595e-02,
          3.79932448e-02, -4.25345190e-02, 1.59393586e-02,
          3.22450660e-02, -3.28302756e-02, 4.85501206e-03,
          1.22274086e-02, 3.12712193e-02, 5.27179576e-02,
          -1.69719514e-02, -5.61431050e-02, 8.93064495e-03,
          6.59933835e-02, -2.46731211e-02, -2.27761418e-01,
          -1.27245799e-01, 1.95560176e-02, 5.05631827e-02,
          -1.05709797e-02, -3.34477350e-02, 1.10022515e-01,
          1.92613751e-02, -9.24527273e-02, -6.74891174e-02,
          4.20790203e-02, -3.07781659e-02, 1.77654997e-02,
          4.59313914e-02, -3.90285291e-02, 2.33120937e-02,
          7.92822242e-02, -3.54325995e-02, -1.37428969e-01,
          -1.87780373e-02, 1.68429203e-02, 7.98752382e-02,
          3.22224125e-02, 1.50718754e-02, 4.25775014e-02, 2.57668830e-02,
          -5.44361845e-02, -9.05972049e-02, -4.21185941e-02,
          5.19073680e-02, 8.89704973e-02, 2.03638282e-02,
          -3.90239730e-02, -1.39542362e-02, -9.67549905e-02,
          -1.40788360e-02, 2.92637162e-02, -3.55299897e-02,
          6.48596138e-02, 6.64756075e-02, -8.47670287e-02,
          -4.34217863e-02, -4.28726338e-02, -1.87475592e-01,
          -1.10248357e-01, -7.62251094e-02, -5.45103028e-02,
          8.32639113e-02, 1.17337137e-01, 5.55912219e-02, 2.84669977e-02,
          4.57409732e-02, -8.63432586e-02, 3.98524397e-04,
          -2.03996599e-02, 1.96421612e-02, 1.23350739e-01,
          6.82447702e-02, 2.64579374e-02, -3.72065641e-02,
          -8.68386477e-02, -1.08188704e-01, -7.16170296e-02,
          9.08048544e-03, 6.56796694e-02, 3.46123730e-03,
          -7.01611787e-02, -1.70377344e-01, -3.97244357e-02,
          -7.74943084e-02, 5.41612389e-04, -2.59936415e-02,
          -7.80461058e-02, 1.17025487e-02, 3.26539762e-02,
          -4.64037843e-02, 2.80973222e-02, 4.88094985e-02,
          2.95834169e-02, 1.67614803e-01, 6.27402291e-02, 1.09909542e-01,
          5.99725731e-02, 4.45261225e-02, 2.98661124e-02,
          -9.18406472e-02, -3.70870158e-02, -6.68464005e-02,
          -3.40230204e-02, -9.97104943e-02, -1.36847850e-02,
          2.16173809e-02, 3.11915800e-02, 1.97927305e-03, 4.07659002e-02,
          1.30949676e-01, -1.04612680e-02, 4.92017865e-02,
          -8.69124159e-02, 9.99107305e-03, 3.39680351e-02,
          6.15371391e-02, -2.36584917e-02, 9.05039832e-02,
          3.55416425e-02, 1.67276692e-02, 5.54177724e-03,
          -5.15194237e-02, 4.12329622e-02, 1.01592377e-01,
          -9.41220764e-03, -1.09494820e-01, -3.80267352e-02,
          1.76794343e-02, 1.60757452e-02, -5.86937822e-04,
          2.87948269e-02, -2.31393725e-02, 5.60350902e-02,
          -9.10248701e-03, -7.29207098e-02, 5.64012071e-03,
          6.47336468e-02, -3.87760252e-02, -4.50057629e-03,
          -4.80072498e-02, 1.41022529e-03, 5.58749214e-02,
          7.78024346e-02, -2.85684917e-04, -1.34060949e-01,
          -1.00405723e-01, -6.65074512e-02, 3.86833251e-02,
          4.85147908e-02, -1.03225410e-02, 8.00091475e-02,
          -4.42203023e-02, 1.57972500e-02, -1.57191809e-02,
          -2.32685860e-02, -2.70552561e-02, -1.71888351e-01,
          6.43846393e-02, 1.74530134e-01, -1.21766431e-02,
          -5.25918826e-02, 1.78199168e-02, -3.82107235e-02,
          1.24752643e-02, -1.64149627e-02, -3.26073989e-02,
          8.59709084e-02, 2.02936903e-01, -3.45740728e-02,
          -7.10985735e-02, -4.12325449e-02, 3.38875651e-02,
          3.29321362e-02, 6.89548254e-02, 5.86919300e-02, 7.54020363e-02,
          -6.49014339e-02, -7.33769536e-02, -1.04282778e-02,
          -3.08812410e-03, 4.06522071e-03, 5.79962227e-03,
          6.30669743e-02, 3.59625183e-02, 1.89957619e-01,
          -6.84988499e-02, 7.45738717e-03, 6.87352791e-02,
          3.53623107e-02, 2.62091514e-02, 1.39265180e-01,
          -1.80008471e-01, -1.79001287e-01, -1.16464861e-01,
          8.95062461e-02, 3.45434919e-02, 1.28756896e-01, 8.14948976e-02,
          1.26473024e-01, -1.94946807e-02, -3.12811360e-02,
          -1.64775774e-01, -1.23126477e-01, 3.47753949e-02,
          4.19517569e-02, 1.81179285e-01, 1.17335379e-01, 7.72990957e-02,
          1.16930090e-01, 2.07040962e-02, -1.27001792e-01,
          -7.84508213e-02, 1.16787642e-01, 1.13742664e-01,
          1.90313339e-01, 1.53146848e-01, 1.21533766e-01, 5.26383594e-02,
          -3.09960674e-02, -2.22961962e-01, -9.10738558e-02,
          6.83427081e-02, 6.97555542e-02, 7.04646036e-02, 3.15805413e-02,
          3.71786058e-02, -5.70354350e-02, -3.45784500e-02,
          -6.84029832e-02, -5.41396514e-02, 3.37096490e-02,
          3.50851682e-03, -4.30761576e-02, -5.92247359e-02,
          5.91260120e-02, -7.61704240e-03, 2.94542350e-02,
          -8.31443071e-03, -9.07041654e-02, 1.78760868e-02,
          -2.30059493e-02, 1.40227601e-01, 8.29803348e-02,
          5.42638786e-02, -2.21117157e-02, 7.77721256e-02,
          -5.53471409e-02, -6.09487332e-02, 2.77562737e-02,
          2.88152117e-02, 3.39224599e-02, -5.57764769e-02,
          1.96631942e-02, 3.62330466e-03, 5.77230752e-02,
          -8.32726210e-02, -5.36316782e-02, 5.18601723e-02,
          4.29714620e-02, -8.27201754e-02, -9.43708047e-02,
          1.39964759e-01, 4.66750935e-02, 1.74933858e-02, 1.41728073e-02,
          -3.16142328e-02, 5.58837038e-03, -2.75432458e-03,
          2.58262027e-02, 1.99782359e-03, 4.78139631e-02, 1.34068299e-02,
          4.76951674e-02, -2.78807152e-02, -4.16461043e-02,
          -1.01629697e-01, -2.60129888e-02, 2.93604881e-02,
          -9.49748233e-02, 7.02325553e-02, 3.79997231e-02,
          2.93739997e-02, -9.77050290e-02, -8.52556825e-02,
          -8.05476904e-02, -4.42324206e-03, -4.12193835e-02,
          -5.49477860e-02, -6.16007373e-02, 4.96224919e-03,
          6.96750507e-02, -8.05749372e-03, -4.83482890e-02,
          -1.18509553e-01, -1.17382957e-02, 7.94274434e-02,
          2.34214440e-02, 3.90192047e-02, -1.13407345e-02,
          2.92658024e-02, 6.95956349e-02, 4.77331616e-02,
          -2.44675856e-02, 2.86204256e-02, 3.45785394e-02,
          -9.08930451e-02, -4.09144312e-02, -1.19219057e-01,
          3.23863812e-02, -3.96817736e-02, 2.43578907e-02,
          6.07471615e-02, 1.04540110e-01, -1.15919888e-01,
          -1.45331621e-01, -5.87457269e-02, -6.22631656e-03,
          2.99982112e-02, 9.29747149e-02, 1.58908647e-02,
          -5.10261320e-02, 6.89622611e-02, -8.69426802e-02,
          -1.73239157e-01, -7.07506910e-02, -1.17885299e-01,
          6.65483028e-02, 4.86231074e-02, -3.22787762e-02,
          -8.74472558e-02, -8.36409815e-03, 1.02533884e-02,
          -4.81471792e-02, -1.14773698e-02, -4.49352190e-02,
          3.42419110e-02, -2.60412507e-02, -7.01595917e-02,
          -5.06931311e-03, -1.78728197e-02, -7.45457485e-02,
          -6.94190413e-02, 2.42948532e-02, 9.02816802e-02,
          5.35687990e-02, 2.05874965e-02, -4.98884842e-02,
          3.51659860e-03, -9.71531197e-02, -6.01207688e-02,
          -1.85944989e-01, -1.00223133e-02, -5.79324700e-02,
          7.84218758e-02, 1.50022842e-02, -6.24531973e-03,
          -2.46501490e-02, -1.36859110e-02, 2.06276048e-02,
          -6.35870248e-02, -6.54730655e-04, 6.41290843e-02,
          1.07948154e-01, 2.74328124e-02, 4.28214520e-02, 6.87267855e-02,
          -1.43951364e-02, -1.17642447e-01, -3.62852775e-02,
          -1.38025463e-01, -3.37654799e-02, 1.79980369e-03,
          -4.48636748e-02, -2.25879103e-02, -3.87554206e-02,
          -9.77001786e-02, 9.25844014e-02, 1.28119692e-01,
          -3.46202254e-02, -1.93043977e-01, -6.75563067e-02,
          2.60326136e-02, -3.88921201e-02, -4.34304886e-02,
          5.31252548e-02, -7.53611922e-02, 9.92787187e-04,
          3.01814284e-02, 4.81097437e-02, 4.27013189e-02, 2.53309850e-02,
          -1.24762300e-02, 4.31638211e-02, -9.17831957e-02,
          7.53035769e-02, 6.21220246e-02, 7.03180255e-03, 4.30371193e-03,
          5.81563115e-02, 1.15488544e-01, -8.09674431e-03,
          9.98043790e-02, 8.32071975e-02, -4.02027071e-02,
          -6.31113350e-02, 3.08131762e-02, 5.18126339e-02,
          1.09795049e-01, 7.00345710e-02, 1.22093111e-02, 1.18022850e-02,
          -4.78219353e-02, -1.72642618e-02, -2.62509249e-02,
          8.36733729e-02, 3.60506587e-02, 8.07019398e-02, 8.68919939e-02,
          2.11831495e-01, 8.99986401e-02, 4.80395257e-02, 5.44923358e-02,
          7.47140050e-02, 6.06329702e-02, 9.02895927e-02, 1.57883074e-02,
          -1.92413125e-02, -9.38773435e-03, -7.80650228e-02,
          -3.58780293e-04, 5.96895628e-02, -1.21579645e-03,
          7.24047497e-02, -8.60210136e-03, -6.61637932e-02,
          -5.07413857e-02, 1.11906109e-02, -4.46911156e-02,
          6.94994703e-02, 9.06311870e-02, -9.84287262e-03,
          4.60392646e-02, 8.83962736e-02, 8.26651379e-02,
          -9.62545257e-03, 5.62470779e-02, 1.07290067e-01,
          9.00274292e-02, -2.03220807e-02, 5.61095700e-02,
          -1.49087859e-02, 6.81451112e-02, -1.63916906e-03,
          -8.42418522e-02, -1.48314729e-01, 5.27937859e-02,
          5.30717485e-02, 6.32047327e-03, -8.33653882e-02,
          -6.67889938e-02, 5.94498441e-02, 3.22603667e-03,
          5.89550426e-03, 5.59139177e-02, 6.88683800e-03, 7.60746896e-02,
          -4.95660752e-02, -1.02756217e-01, -1.60006136e-01,
          9.20832381e-02, 1.51439048e-02, -7.52383396e-02,
          -1.93039905e-02, 6.77176490e-02, 2.78060101e-02,
          -3.15649435e-02, 3.34977023e-02, -4.14471589e-02,
          1.45009886e-02, 2.95365360e-02, -4.32626419e-02,
          -7.78299496e-02, 1.82846077e-02, 2.33850069e-02,
          -2.75449026e-02, -6.91199377e-02, -4.51100767e-02,
          6.93928599e-02, 1.12254918e-01, -7.84640685e-02,
          -5.58729023e-02, -1.71004552e-02, -4.77830879e-02,
          -4.73502688e-02, -5.26275635e-02, -1.40202582e-01,
          1.21587822e-02, 2.42227968e-02, -1.14940945e-02,
          2.26620119e-03, 2.04417985e-02, 5.12171537e-02,
          -2.17880197e-02, -7.19574988e-02, -1.67615544e-02,
          3.24060731e-02, 6.72236457e-02, 4.26999107e-02, 3.23574431e-02,
          -2.39205435e-02, -1.39902858e-02, 2.19569802e-02,
          -1.12448134e-01, -7.80303255e-02, -1.61219817e-02,
          -2.26888042e-02, -1.60081267e-01, -7.56755471e-02,
          -1.29329979e-01, -1.40889622e-02, 6.86207740e-03,
          -8.14679787e-02, -4.69554327e-02, -5.56056574e-02,
          -4.25656214e-02, -6.83721825e-02, -3.09727676e-02,
          -1.37829930e-01, 5.92773184e-02, 8.80214870e-02,
          -1.54758230e-01, -5.83678707e-02, -2.69736387e-02,
          1.13581298e-02, 3.79143725e-03, -1.66301336e-02,
          -3.55938300e-02, 4.57935035e-02, 9.14934874e-02,
          -2.94302870e-02, -4.36705649e-02, -5.16911261e-02,
          -5.42379692e-02, -2.65285559e-02, -2.15910319e-02,
          -7.60478675e-02, 1.52401179e-01, -4.19439226e-02,
          4.39165086e-02, -1.53462365e-02, -2.33155340e-02,
          -4.31593657e-02, -1.86486878e-02, -3.28799114e-02,
          -4.08198796e-02, 7.54227340e-02, -1.02242958e-02,
          -7.49628693e-02, 8.13875794e-02, -5.95371891e-03,
          -2.63630059e-02, -8.31103846e-02, -1.51416525e-01,
          -9.15890485e-02, -3.99010107e-02, 7.86778629e-02,
          1.03696689e-01, 8.14090297e-03, -3.91006321e-02,
          1.33153778e-02, -3.98809649e-02, -2.61872187e-02,
          7.30298832e-02, 1.44389912e-01, 1.06637493e-01, 1.71788763e-02,
          -1.59338594e-03, -1.47181889e-02, -5.80735728e-02,
          -1.81933165e-01, -1.91988081e-01, 6.37605935e-02,
          4.20452990e-02, -3.67227644e-02, -1.51067019e-01,
          4.42736633e-02, 4.05005971e-03, 5.46161570e-02,
          -3.93899642e-02, -6.50965497e-02, -1.51162886e-03,
          5.32031059e-03, 3.45143452e-02, -1.17248051e-01,
          1.28996000e-01, 1.51833231e-02, 8.75677094e-02, 2.52984371e-03,
          -1.19610326e-02, 6.31205961e-02, 9.08657536e-02,
          8.73310342e-02, -1.19626513e-02, 7.43111670e-02,
          -1.52940052e-02, -3.73314731e-02, -1.24500938e-01,
          -1.56946704e-01, 2.46021245e-02, -8.95226002e-02,
          6.26680627e-02, 8.53987131e-03, 1.32080868e-01,
          -2.77186725e-02, -2.89790761e-02, -5.27243726e-02,
          -8.08967799e-02, -4.23810072e-02, -2.53275912e-02,
          -3.92911732e-02, -1.38441980e-01, -1.17204422e-02,
          2.60710604e-02, 4.14247699e-02, 1.34695005e-02,
          -6.15640134e-02, -2.13282183e-02, -5.16111739e-02,
          5.98774515e-02, -5.73478937e-02, -1.11736670e-01,
          1.56656373e-02, 8.19187090e-02, 5.88516593e-02,
          -3.84562984e-02, 4.96814921e-02, 6.52794838e-02,
          3.58339883e-02, -4.33677854e-03, 5.37289679e-02,
          -1.81424133e-02, -2.06191465e-02, -1.62915103e-02,
          -1.02173813e-01, -1.78608358e-01, -2.62811426e-02,
          1.51221603e-01, 7.31417090e-02, 1.90961026e-02,
          -1.32248178e-02, 3.61443274e-02, -2.50225160e-02,
          -2.46827938e-02, -1.22037018e-02, 1.17868491e-01 ]
   uncompressed_sv_total: 67
   uncompressed_support_vectors:
      - [ 7.74044469e-02, 3.42291564e-01, 3.42291564e-01, 8.39015320e-02,
          1.41324839e-02, 9.05293506e-04, 3.18309944e-03, 2.63395649e-03,
          1.23633500e-02, 9.31962058e-02, 3.42291564e-01, 3.42291564e-01,
          8.20942670e-02, 2.74558440e-02, 4.32088133e-03, 2.86270236e-03,
          3.15740844e-03, 1.61939543e-02, 5.74123673e-02, 3.42291564e-01,
          3.42291564e-01, 9.12620947e-02, 1.09759271e-02, 8.90135299e-03,
          1.10125365e-02, 1.13729229e-02, 1.74625423e-02, 8.74759853e-02,
          3.42291564e-01, 3.42291564e-01, 9.11768302e-02, 2.04416215e-02,
          1.41788460e-02, 1.71995889e-02, 6.20634668e-03, 9.68240295e-03,
          5.97470291e-02, 3.41397643e-01, 3.41397643e-01, 6.29415363e-02,
          3.62961143e-02, 1.20945368e-02, 6.20130030e-03, 1.07896663e-02,
          1.51157547e-02, 6.51907474e-02, 3.41397643e-01, 3.41397643e-01,
          1.00203440e-01, 4.67418171e-02, 1.41420905e-02, 7.62472628e-03,
          1.34745855e-02, 1.02479123e-02, 7.94687942e-02, 3.41397643e-01,
          3.41397643e-01, 9.61237177e-02, 2.18022671e-02, 4.93046036e-03,
          1.24878380e-02, 3.85695440e-03, 6.58071600e-03, 7.65551701e-02,
          3.41397643e-01, 3.41397643e-01, 1.18262134e-01, 3.63884903e-02,
          6.48865476e-03, 9.05588642e-03, 8.59021675e-03, 1.15791503e-02,
          1.57325476e-01, 3.87189806e-01, 3.87189806e-01, 1.44705147e-01,
          5.57617322e-02, 6.51924685e-03, 1.14270868e-02, 1.47082405e-02,
          2.08405294e-02, 2.16810077e-01, 3.87189806e-01, 3.87189806e-01,
          5.65129668e-02, 5.49551174e-02, 2.90775788e-03, 6.09555142e-03,
          2.47877557e-02, 5.89039661e-02, 1.08070336e-01, 3.02215397e-01,
          3.66604656e-01, 1.28392696e-01, 4.08057198e-02, 2.23059114e-02,
          2.67260578e-02, 2.10986249e-02, 3.56690250e-02, 8.07979926e-02,
          1.10125184e-01, 8.43404308e-02, 2.17141323e-02, 8.86100158e-03,
          2.45411601e-02, 2.66067572e-02, 3.08707096e-02, 4.91954572e-02,
          3.66606921e-01, 3.66606921e-01, 3.66606921e-01, 3.40259895e-02,
          1.59015507e-01, 8.25806893e-03, 1.96831431e-02, 1.33534849e-01,
          2.67555326e-01, 3.46796095e-01, 1.34509355e-01, 6.09957939e-03,
          8.18598084e-03, 6.77306429e-02, 2.32472736e-02, 6.79210871e-02,
          2.56227285e-01, 3.66606921e-01, 1.03608347e-01, 7.38619566e-02,
          2.67952811e-02, 4.44936287e-03, 1.04685407e-02, 3.33371945e-02,
          5.57711571e-02, 1.25704110e-01, 1.18219435e-01, 7.53736049e-02,
          1.52737498e-02, 1.67461578e-02, 6.58905804e-02, 6.36874810e-02,
          8.83998647e-02, 1.11372344e-01, 1.67129189e-01, 1.21573471e-01,
          1.02030478e-01, 2.22265590e-02, 1.52013507e-02, 2.67695207e-02,
          3.88357267e-02, 4.71985526e-02, 1.09256148e-01, 3.28982502e-01,
          2.84125417e-01, 3.90002578e-02, 1.29428525e-02, 2.50682626e-02,
          1.99127030e-02, 5.80692440e-02, 5.11341244e-02, 2.87380010e-01,
          3.38023514e-01, 1.89924777e-01, 7.11686909e-02, 5.59257418e-02,
          7.62178227e-02, 2.10470244e-01, 1.64284572e-01, 2.05333397e-01,
          1.40357986e-01, 1.41212255e-01, 9.41424817e-02, 1.20203689e-01,
          8.84909481e-02, 1.03147782e-01, 1.45605221e-01, 1.40617788e-01,
          2.03827932e-01, 3.12288642e-01, 3.38023514e-01, 1.88001379e-01,
          7.21034547e-03, 1.19900226e-03, 4.01363149e-03, 5.49151213e-04,
          2.61757374e-02, 2.75928900e-02, 3.31201255e-01, 3.39718997e-01,
          1.07766360e-01, 1.04587097e-02, 1.43715367e-03, 1.25102582e-04,
          1.48699395e-02, 3.45052443e-02, 1.18516237e-01, 3.39718997e-01,
          3.39718997e-01, 9.51350927e-02, 3.40986103e-02, 1.08496454e-02,
          1.80929136e-02, 8.35126825e-03, 3.07784267e-02, 8.92088562e-02,
          3.22037131e-01, 3.11071962e-01, 9.47466865e-02, 1.13536408e-02,
          4.57198778e-03, 4.28353576e-03, 1.08667826e-02, 1.02126263e-01,
          3.14599127e-01, 3.39718997e-01, 2.37215549e-01, 3.91403548e-02,
          4.98661119e-03, 6.74372306e-04, 0., 8.55229143e-03,
          3.86231020e-02, 1.24147579e-01, 3.53542507e-01, 2.35336900e-01,
          1.96304843e-02, 3.83070856e-02, 1.19040115e-03, 5.40509820e-03,
          1.04902364e-01, 1.74684420e-01, 3.32879603e-01, 3.53542507e-01,
          3.53542507e-01, 9.00296345e-02, 7.68400962e-03, 6.56404579e-03,
          2.63216579e-03, 3.89278843e-03, 3.23677994e-02, 1.14495337e-01,
          2.45228022e-01, 1.19422257e-01, 1.10162962e-02, 4.81442139e-02,
          5.18684648e-03, 1.69370568e-03, 4.26588878e-02, 7.31851980e-02,
          2.79888660e-01, 3.53542507e-01, 2.80240417e-01, 8.12327489e-02,
          9.69546586e-02, 3.61599386e-01, 3.61599386e-01, 2.12285727e-01,
          4.64605689e-02, 3.54486741e-02, 4.19331081e-02, 1.96074527e-02,
          4.73610871e-02, 1.98473439e-01, 3.61599386e-01, 3.61599386e-01,
          1.74900249e-01, 3.29904817e-02, 4.10132036e-02, 4.85010892e-02,
          1.15234554e-02, 2.69757062e-02, 1.21574357e-01, 2.31309131e-01,
          3.61599386e-01, 1.31612688e-01, 5.10944910e-02, 2.40719765e-02,
          2.29837466e-02, 9.46139079e-03, 5.40542938e-02, 1.67541429e-01,
          1.92959160e-01, 1.78548649e-01, 9.01289880e-02, 4.97374013e-02,
          1.90006699e-02, 3.00567728e-02, 2.47377399e-02, 4.89149466e-02,
          1.53954044e-01, 3.24881673e-01, 3.24881673e-01, 1.31110966e-01,
          2.00552046e-02, 1.10086305e-02, 1.96333583e-02, 2.06151418e-02,
          1.77938547e-02, 1.15113780e-01, 3.24881673e-01, 3.24881673e-01,
          1.59374774e-01, 4.35646586e-02, 1.29510742e-02, 2.84164529e-02,
          4.32180353e-02, 4.22069691e-02, 1.03765987e-01, 1.71725690e-01,
          2.32143387e-01, 2.57871121e-01, 7.74475262e-02, 1.44880246e-02,
          1.60090737e-02, 3.41999009e-02, 4.33281809e-02, 5.78081422e-02,
          2.05735400e-01, 3.24881673e-01, 3.24881673e-01, 2.31275499e-01,
          6.33450374e-02, 1.48168141e-02, 3.28002982e-02, 3.35766412e-02,
          7.63442665e-02, 1.00249566e-01, 1.41375259e-01, 8.60068500e-02,
          3.96865383e-02, 4.13988419e-02, 6.16434813e-02, 5.14705405e-02,
          6.73157647e-02, 5.23824655e-02, 2.40149964e-02, 2.43258756e-02,
          1.55903399e-02, 4.72333841e-02, 7.18037337e-02, 8.28777179e-02,
          5.52657545e-02, 7.56029040e-02, 1.60170957e-01, 1.37905300e-01,
          2.98703879e-01, 2.98703879e-01, 2.98703879e-01, 2.87233055e-01,
          1.06069028e-01, 4.60696556e-02, 1.66890919e-01, 1.84511989e-01,
          7.44313821e-02, 2.83801973e-01, 1.39448404e-01, 2.98703879e-01,
          2.98703879e-01, 2.68488854e-01, 1.46957114e-01, 2.54016280e-01,
          4.91433255e-02, 1.63542721e-02, 1.11253848e-02, 1.39805321e-02,
          7.83941597e-02, 1.08229339e-01, 1.13216877e-01, 1.08393893e-01,
          1.02164574e-01, 3.28114778e-02, 1.72060076e-02, 2.55588070e-02,
          5.67749031e-02, 1.06324062e-01, 1.42425090e-01, 1.39657542e-01,
          9.68699530e-02, 5.27663827e-02, 1.38947219e-01, 2.75908336e-02,
          1.85920727e-02, 4.34635244e-02, 3.93557876e-01, 3.93557876e-01,
          3.93557876e-01, 3.93557876e-01, 3.45956594e-01, 4.80006449e-02,
          3.71624082e-02, 6.04574755e-02, 5.69246821e-02, 1.42299384e-01,
          1.57696187e-01, 1.71237215e-01, 1.24038316e-01, 9.87222791e-02,
          1.73708461e-02, 2.06105486e-02, 2.63233539e-02, 8.19829926e-02,
          1.56684846e-01, 2.32109621e-01, 1.36159122e-01, 4.43863980e-02,
          1.77752450e-02, 6.80231452e-02, 4.00345847e-02, 5.39718755e-02,
          1.12633035e-01, 2.21184209e-01, 3.21588844e-01, 2.55372822e-01,
          2.00680524e-01, 9.56251547e-02, 6.50284579e-03, 1.62516106e-02,
          6.02987371e-02, 1.01419054e-01, 2.14713112e-01, 2.19205633e-01,
          1.24256551e-01, 4.57784832e-02, 1.08381351e-02, 3.84684578e-02,
          4.40224893e-02, 3.14036459e-01, 3.21588844e-01, 3.21588844e-01,
          3.21588844e-01, 2.26547733e-01, 9.77831259e-02, 3.71292271e-02,
          4.95800264e-02, 2.39531901e-02, 3.18550132e-02, 6.73967302e-02,
          1.04862846e-01, 1.58524290e-01, 1.55245215e-01, 1.61748171e-01,
          6.10752068e-02, 4.31654677e-02, 5.31238057e-02, 2.70988978e-02,
          5.31670935e-02, 1.85697138e-01, 1.94393992e-01, 1.13801129e-01,
          7.76829273e-02, 4.84803393e-02, 1.20545492e-01, 1.31506637e-01,
          2.72204220e-01, 2.72204220e-01, 2.72204220e-01, 2.72204220e-01,
          1.73421457e-01, 1.09389037e-01, 6.15320615e-02, 2.35196933e-01,
          2.63300955e-01, 2.31817126e-01, 2.06878722e-01, 2.72204220e-01,
          2.72204220e-01, 1.78818151e-01, 9.80096981e-02, 1.08297683e-01,
          7.58934617e-02, 7.55791292e-02, 4.15553525e-02, 5.55868596e-02,
          1.85348734e-01, 1.59576118e-01, 1.74620658e-01, 1.38739124e-01,
          1.04541853e-01, 1.30332947e-01, 4.76637147e-02, 3.25285606e-02,
          3.08133941e-02, 5.70571870e-02, 2.38034546e-01, 3.14463109e-01,
          3.14463109e-01, 1.68466911e-01, 2.19093174e-01, 2.12459639e-01,
          1.76484436e-01, 1.51410237e-01, 2.39869609e-01, 8.69102031e-02,
          9.06163082e-02, 1.06657177e-01, 2.11275473e-01, 1.68807268e-01,
          7.31441006e-02, 8.99542123e-02, 5.81905693e-02, 3.02051194e-02,
          6.00854903e-02, 3.01524103e-01, 3.14463109e-01, 1.91219985e-01,
          2.49688879e-01, 3.15812916e-01, 3.15812916e-01, 1.39644742e-01,
          7.12009519e-02, 2.80766226e-02, 6.61989823e-02, 7.78732598e-02,
          1.61374599e-01, 1.82744086e-01, 2.36236930e-01, 1.67126238e-01,
          2.22484037e-01, 2.36974835e-01, 1.20306157e-01, 8.59706029e-02,
          7.23802149e-02, 9.93438810e-02, 1.60307035e-01, 1.61031261e-01,
          1.20562315e-01, 8.58776048e-02, 9.00636017e-02, 8.47920403e-02,
          1.16899535e-01, 1.52524740e-01, 1.73927724e-01, 4.27401662e-02,
          8.39216784e-02, 1.47616267e-01, 1.87666386e-01, 2.74631947e-01,
          3.15812916e-01, 1.05501220e-01, 4.24454398e-02, 5.84951937e-02,
          3.00307609e-02, 4.97262180e-02, 8.56133625e-02, 2.33356535e-01,
          1.55205995e-01, 7.94296563e-02, 2.03900691e-02, 1.57663748e-02,
          2.42709983e-02, 2.43763085e-02, 5.68516664e-02, 2.57433295e-01,
          3.14475238e-01, 3.14475238e-01, 1.82908222e-01, 3.20378020e-02,
          1.83518957e-02, 2.17124950e-02, 7.22996192e-03, 6.72891689e-03,
          2.37946548e-02, 9.81097519e-02, 2.21290633e-01, 3.14475238e-01,
          9.99834239e-02, 3.85977067e-02, 2.34980248e-02, 5.28198406e-02,
          3.31140086e-02, 7.67128095e-02, 2.92740613e-01, 3.14475238e-01,
          3.14475238e-01, 3.14475238e-01, 1.51629642e-01, 1.07392728e-01,
          4.80995327e-02, 6.59655705e-02, 2.41672769e-01, 2.22215638e-01,
          2.55184650e-01, 2.13744223e-01, 4.90979850e-02, 1.58452317e-02,
          5.45200631e-02, 6.62342459e-02, 7.92327970e-02, 1.67600885e-01,
          9.18614715e-02, 2.55184650e-01, 2.55184650e-01, 1.46643505e-01,
          7.50825033e-02, 8.43606517e-02, 8.71822760e-02, 1.10015228e-01,
          1.29936382e-01, 1.39881074e-01, 2.55184650e-01, 2.55184650e-01,
          2.08772257e-01, 1.35219038e-01, 1.16468355e-01, 1.09538622e-01,
          1.56147733e-01, 1.52800635e-01, 1.27983749e-01, 2.55184650e-01,
          2.55184650e-01, 2.37242833e-01, 1.40987650e-01, 1.02628231e-01,
          6.12054132e-02, 5.03108278e-02, 3.18120606e-02, 3.41343954e-02,
          3.13447028e-01, 3.13447028e-01, 3.12133193e-01, 2.00560197e-01,
          9.92755741e-02, 2.16724966e-02, 2.55170353e-02, 3.12707312e-02,
          3.68835665e-02, 1.11961216e-01, 7.35866800e-02, 6.77540600e-02,
          5.32425828e-02, 2.73199435e-02, 1.37466714e-01, 1.78820893e-01,
          1.43365070e-01, 3.12882334e-01, 3.13447028e-01, 3.13447028e-01,
          2.67749488e-01, 1.38117328e-01, 6.83101192e-02, 3.15972902e-02,
          5.30577749e-02, 9.20647755e-02, 2.34018549e-01, 2.70249516e-01,
          9.32786092e-02, 4.50364314e-02, 4.13713120e-02, 3.23118456e-02,
          5.71383210e-03, 4.79134619e-02, 1.73983023e-01, 1.41069353e-01,
          6.21475801e-02, 3.28082964e-02, 1.40757645e-02, 1.08765289e-02,
          4.89574717e-03, 5.13371173e-03, 1.70549691e-01, 3.17090422e-01,
          3.17090422e-01, 1.88290834e-01, 8.19454417e-02, 2.73349937e-02,
          1.19527802e-02, 3.69607355e-03, 2.82834824e-02, 9.70233306e-02,
          3.17090422e-01, 3.00910324e-01, 7.42572099e-02, 5.49223311e-02,
          6.52128831e-02, 6.29515201e-02, 5.25763966e-02, 2.19357200e-02,
          2.83911139e-01, 3.17090422e-01, 3.17090422e-01, 7.67656267e-02,
          1.10719666e-01, 3.08478534e-01, 2.14346007e-01, 5.93574867e-02,
          3.27439196e-02, 1.18124135e-01, 2.68173933e-01, 2.40130007e-01,
          2.68173933e-01, 1.79399654e-01, 9.10402164e-02, 2.35259384e-02,
          1.30425356e-02, 8.08677450e-02, 1.02736272e-01, 1.21175297e-01,
          1.07365847e-01, 2.68173933e-01, 2.53505707e-01, 1.82514712e-01,
          7.31430799e-02, 3.34555283e-02, 7.46772066e-03, 1.13294266e-01,
          2.63600916e-01, 1.54544979e-01, 2.68173933e-01, 2.00287715e-01,
          2.23070636e-01, 7.06562325e-02, 2.00803988e-02, 3.34943905e-02,
          3.43885086e-02, 4.62569892e-02, 1.19156450e-01, 2.68173933e-01,
          2.68173933e-01, 2.68173933e-01, 1.01208694e-01, 4.73953299e-02,
          1.26228049e-01, 1.26284823e-01, 1.26068696e-01, 1.11754835e-01,
          2.97683030e-01, 1.74856931e-01, 1.89813957e-01, 1.66770205e-01,
          9.87656787e-02, 7.52556399e-02, 3.89997996e-02, 5.47267757e-02,
          4.52742651e-02, 5.58708124e-02, 1.30041793e-01, 1.41181394e-01,
          1.28536016e-01, 8.19277689e-02, 7.65976161e-02, 3.26195993e-02,
          4.66443934e-02, 1.54101998e-01, 2.97683030e-01, 2.97683030e-01,
          2.97683030e-01, 2.97683030e-01, 1.57035366e-01, 3.27613689e-02,
          1.55279236e-02, 3.13736945e-02, 6.79318607e-02, 2.43892536e-01,
          2.97683030e-01, 2.13696137e-01, 2.10999578e-01, 1.06645584e-01,
          2.15642050e-01, 2.12745994e-01, 1.28651857e-01, 1.42243013e-01,
          1.12531662e-01, 1.21058650e-01, 1.55934796e-01, 1.77736089e-01,
          1.80221960e-01, 5.49859740e-02, 6.62675723e-02, 1.16321869e-01,
          1.16638765e-01, 1.63382411e-01, 3.09695780e-01, 2.25220233e-01,
          5.98347485e-02, 7.91149810e-02, 2.45211914e-01, 1.56683773e-01,
          6.70881867e-02, 9.95659679e-02, 1.05421945e-01, 1.33595943e-01,
          2.42130637e-01, 2.38018185e-01, 2.01423883e-01, 1.42267019e-01,
          8.14968348e-02, 9.18156728e-02, 5.70798516e-02, 1.25020400e-01,
          2.38775253e-01, 3.31571579e-01, 8.34565014e-02, 1.49710476e-01,
          8.70922580e-03, 2.70454213e-03, 7.82247446e-03, 2.16891263e-02,
          1.36566192e-01, 3.09322238e-01, 1.65549219e-01, 3.54581438e-02,
          2.90516019e-02, 6.66464493e-02, 3.48972417e-02, 5.73728234e-02,
          9.60823670e-02, 3.12670559e-01, 3.12670559e-01, 3.12670559e-01,
          3.03842276e-01, 1.54095367e-01, 1.96918342e-02, 1.85060520e-02,
          1.75173152e-02, 1.80160664e-02, 6.07983805e-02, 1.21324405e-01,
          1.26353651e-01, 2.82688010e-02, 3.58559154e-02, 1.12042107e-01,
          5.77489324e-02, 7.37064406e-02, 8.34635869e-02, 1.52654499e-01,
          3.12670559e-01, 3.12670559e-01, 3.12670559e-01, 2.05374256e-01,
          9.51531231e-02, 1.07214771e-01, 9.91819352e-02, 1.07265778e-01,
          2.34205410e-01, 2.39189312e-01, 2.39189312e-01, 2.39189312e-01,
          1.68177798e-01, 1.11251883e-01, 1.75577804e-01, 1.95792854e-01,
          2.38719091e-01, 2.10300177e-01, 1.57589018e-01, 2.39189312e-01,
          2.15672150e-01, 1.17731258e-01, 1.42142564e-01, 1.38496116e-01,
          9.55149978e-02, 1.01189077e-01, 7.63910487e-02, 1.15793645e-01,
          2.00249970e-01, 2.39189312e-01, 1.76904097e-01, 1.86794952e-01,
          2.09453002e-01, 1.38499022e-01, 1.64711684e-01, 6.45615458e-02,
          3.55986282e-02, 6.32243305e-02, 1.26243472e-01, 1.36858076e-01,
          1.63438678e-01, 2.41671920e-01, 2.87348509e-01, 2.87348509e-01,
          2.87348509e-01, 1.66756809e-01, 1.46926388e-01, 8.36927965e-02,
          9.64279398e-02, 3.78501825e-02, 7.37629160e-02, 9.85313654e-02,
          2.87348509e-01, 2.54510939e-01, 1.02875128e-01, 3.44654918e-02,
          3.81558165e-02, 5.36965616e-02, 2.65314668e-01, 2.20458895e-01,
          2.09847152e-01, 2.49105424e-01, 1.05094455e-01, 5.73299527e-02,
          8.94463509e-02, 1.10944845e-01, 2.09345087e-01, 1.44890204e-01,
          1.86105341e-01, 1.24246687e-01, 1.25203446e-01, 1.10505737e-01,
          8.53595659e-02, 5.10368273e-02, 4.13522087e-02, 6.68171495e-02,
          3.11120749e-02, 5.31282797e-02, 1.27193078e-01, 1.75054729e-01,
          1.50525525e-01, 1.11744002e-01, 9.57634673e-02, 6.09182715e-02,
          6.43533915e-02, 2.75747795e-02, 9.18996483e-02, 2.28920639e-01,
          1.93787411e-01, 2.28360102e-01, 2.06077978e-01, 2.82243937e-01,
          2.62107283e-01, 7.55584165e-02, 4.83743548e-02, 7.10653961e-02,
          7.47119561e-02, 1.30536154e-01, 2.82243937e-01, 1.23023503e-01,
          8.31083059e-02, 5.18903024e-02, 4.03664410e-02, 3.73521969e-02,
          8.76712054e-02, 1.45148262e-01, 2.45926648e-01, 2.82243937e-01,
          2.73653269e-01, 2.82243937e-01, 2.82243937e-01, 7.75236860e-02,
          7.73810688e-03, 5.18692285e-02, 7.64042661e-02, 9.75872353e-02,
          1.78035244e-01, 1.50887445e-01, 2.46003792e-01, 1.85143650e-01,
          4.48671468e-02, 2.16807500e-02, 5.46757728e-02, 3.37612033e-02,
          1.69208825e-01, 2.46003792e-01, 2.46003792e-01, 2.46003792e-01,
          1.26267731e-01, 5.45195937e-02, 6.20928146e-02, 1.73419505e-01,
          8.72679055e-02, 1.16616048e-01, 2.15061739e-01, 1.27412334e-01,
          2.46003792e-01, 2.46003792e-01, 1.01273298e-01, 9.43520516e-02,
          2.46003792e-01, 2.46003792e-01, 2.46003792e-01, 1.99690551e-01,
          2.06123248e-01, 1.56282946e-01, 1.93883777e-01, 1.03443488e-01,
          2.94175465e-02, 5.22385016e-02, 6.01911880e-02, 1.09855451e-01,
          1.42963588e-01, 1.60269514e-01, 1.22389220e-01, 8.64208788e-02,
          3.71070504e-02, 1.51885092e-01, 2.06715003e-01, 8.41979086e-02,
          4.29517105e-02, 9.83486250e-02, 1.11516632e-01, 6.91522956e-02,
          7.37101287e-02, 6.14055358e-02, 1.52695492e-01, 3.30704421e-01,
          3.30704421e-01, 2.72743434e-01, 1.36618719e-01, 1.67494297e-01,
          6.32150173e-02, 5.65831438e-02, 6.66363910e-02, 3.30704421e-01,
          3.30704421e-01, 3.30704421e-01, 1.63086668e-01, 9.88831595e-02,
          1.04822069e-01, 4.46199737e-02, 7.55993202e-02, 1.96656764e-01,
          5.86177222e-02, 3.62027474e-02, 2.16767583e-02, 5.51628731e-02,
          7.80193210e-02, 1.42232716e-01, 9.62683558e-02, 7.51524642e-02,
          5.79857305e-02, 1.13737397e-01, 8.24473277e-02, 3.04806828e-02,
          3.17620374e-02, 5.63726276e-02, 9.48552415e-02, 9.11489800e-02,
          3.77228148e-02, 6.52738214e-02, 3.55252922e-01, 1.68818414e-01,
          7.15481043e-02, 5.72114363e-02, 1.11967504e-01, 2.19673529e-01,
          1.10800795e-01, 3.55252922e-01, 3.55252922e-01, 3.55252922e-01,
          3.27359945e-01, 2.30054893e-02, 2.15114560e-02, 6.34071231e-02,
          1.08956479e-01, 7.71545023e-02, 1.57387644e-01, 3.55252922e-01,
          8.51400271e-02, 5.55903427e-02, 2.90131699e-02, 3.11942473e-02,
          4.54099253e-02, 6.68603331e-02, 8.25950578e-02, 3.74174118e-02,
          8.70677531e-02, 1.47336587e-01, 1.31582275e-01, 1.75589174e-01,
          1.89873755e-01, 1.26682341e-01, 1.30494058e-01, 2.22339943e-01,
          1.99186727e-01, 2.20911309e-01, 2.92306215e-01, 1.26092598e-01,
          1.46469828e-02, 2.92273778e-02, 4.14980426e-02, 7.09272325e-02,
          6.68381229e-02, 5.82689792e-02, 2.92306215e-01, 2.28454918e-01,
          2.92306215e-01, 2.92306215e-01, 2.92306215e-01, 2.28987262e-01,
          7.16279969e-02, 1.10722020e-01, 1.39417782e-01, 2.92306215e-01,
          1.10875912e-01, 1.22769862e-01, 1.49034977e-01, 7.51281381e-02,
          2.58108210e-02, 2.07437165e-02, 4.30343077e-02, 5.52880466e-02,
          7.44552612e-02, 2.66268015e-01, 2.20520467e-01, 2.14469776e-01,
          9.51003954e-02, 4.98252399e-02, 3.14478315e-02, 5.97067140e-02,
          1.16219379e-01, 1.92194507e-01, 1.12526931e-01, 2.52806574e-01,
          2.66268015e-01, 2.01570705e-01, 7.22885653e-02, 6.80251271e-02,
          4.95216660e-02, 9.08310711e-02, 1.02198847e-01, 2.66268015e-01,
          2.66268015e-01, 2.66268015e-01, 1.87521279e-01, 1.22393079e-01,
          2.04133973e-01, 1.81950316e-01, 2.66268015e-01, 2.66268015e-01,
          2.55894959e-01, 1.29420534e-01, 1.25956848e-01, 7.69357905e-02,
          7.57458508e-02, 5.24913818e-02, 1.00511797e-01, 1.70344010e-01,
          2.50215620e-01, 8.87846053e-02, 5.84065318e-02, 3.68881896e-02,
          3.81787233e-02, 6.16787858e-02, 2.34416835e-02, 6.44144788e-02,
          6.89591616e-02, 8.37847665e-02, 2.69109249e-01, 2.69109249e-01,
          2.13324219e-01, 2.16420487e-01, 2.43277460e-01, 1.78177759e-01,
          2.43121564e-01, 2.69109249e-01, 2.69109249e-01, 1.66279584e-01,
          1.37757063e-01, 9.33920965e-02, 1.21513717e-01, 1.55788735e-01,
          5.20785153e-02, 1.21351518e-01, 1.79939494e-01, 2.69109249e-01,
          5.89055791e-02, 5.28219715e-02, 4.99164499e-02, 7.77540430e-02,
          2.31764421e-01, 1.04709618e-01, 1.11853868e-01, 7.62198940e-02,
          4.91488390e-02, 6.26651496e-02, 9.59289074e-02, 1.41293809e-01,
          1.80651486e-01, 2.80367047e-01, 2.57402599e-01, 2.80367047e-01,
          2.80367047e-01, 1.09358281e-01, 1.68958575e-01, 1.13035262e-01,
          5.14568351e-02, 3.64288837e-02, 9.94166359e-02, 6.33976534e-02,
          1.00919932e-01, 1.52429938e-01, 2.80367047e-01, 2.68324494e-01,
          1.82855740e-01, 1.28738537e-01, 5.26839606e-02, 1.79641321e-01,
          1.47548988e-01, 2.51580060e-01, 1.58979639e-01, 2.80367047e-01,
          1.12940170e-01, 2.66994566e-01, 2.38462478e-01, 1.25741377e-01,
          1.61119714e-01, 9.53701511e-02, 1.78952739e-01, 1.63041696e-01,
          1.08307667e-01, 1.36707529e-01, 2.66994566e-01, 2.66994566e-01,
          2.19004303e-01, 1.12381652e-01, 1.07668504e-01, 4.92989346e-02,
          9.80074480e-02, 1.22255385e-01, 2.27342352e-01, 2.66994566e-01,
          2.45023638e-01, 6.65510520e-02, 5.89741021e-02, 5.92279546e-02,
          1.08757325e-01, 6.38207719e-02, 1.76740170e-01, 2.43274584e-01,
          2.66994566e-01, 2.48161703e-01, 6.66385740e-02, 4.52513732e-02,
          3.43464091e-02, 1.82354599e-02, 4.48903814e-02, 1.76537097e-01,
          2.53423691e-01, 3.07838053e-01, 3.07838053e-01, 1.85785830e-01,
          9.47310627e-02, 1.40496224e-01, 2.18994766e-02, 4.23501991e-02,
          1.72442764e-01, 3.07838053e-01, 3.07838053e-01, 3.07838053e-01,
          1.31447405e-01, 7.47431964e-02, 1.04361698e-01, 4.36575450e-02,
          8.11525136e-02, 2.84979463e-01, 2.09415689e-01, 1.18973404e-01,
          9.22148898e-02, 3.08269206e-02, 3.78693454e-02, 5.03857285e-02,
          1.68150365e-02, 4.07304205e-02, 1.58845544e-01, 2.69715160e-01,
          1.61298379e-01, 9.00530368e-02, 3.17402110e-02, 2.48279776e-02,
          4.01122048e-02, 3.82865854e-02, 6.73889443e-02, 1.59548521e-01,
          1.55288607e-01, 6.37847409e-02, 3.25121060e-02, 5.76148648e-03,
          2.99296845e-02, 6.13371469e-02, 7.11705759e-02, 2.88853526e-01,
          3.32247078e-01, 2.49741197e-01, 8.94702971e-02, 4.32430394e-03,
          4.45263926e-04, 2.62700412e-02, 4.40170206e-02, 2.91865095e-02,
          9.07057524e-02, 3.32247078e-01, 1.98381588e-01, 8.02885666e-02,
          3.63155976e-02, 1.02189891e-02, 3.43688577e-02, 5.68879023e-02,
          1.75177529e-01, 3.32247078e-01, 3.32247078e-01, 3.32247078e-01,
          9.14990082e-02, 1.04343845e-02, 3.94982938e-03, 2.73174793e-02,
          3.79211418e-02, 5.12255542e-02, 1.84886605e-01, 3.32247078e-01,
          2.12921053e-01, 5.43006100e-02, 4.69341595e-03, 2.81480118e-03,
          2.93394811e-02, 6.05935901e-02, 3.19909304e-02, 3.82445641e-02,
          2.87094027e-01, 1.95179045e-01, 1.24831527e-01, 1.10185772e-01,
          1.38247684e-01, 8.55455697e-02, 5.35227619e-02, 7.27239251e-02,
          8.19370523e-02, 2.86809444e-01, 3.61916512e-01, 1.20394036e-01,
          1.03739873e-02, 2.20385846e-03, 2.24434249e-02, 4.15556990e-02,
          2.14223154e-02, 7.53065124e-02, 3.61916512e-01, 3.61916512e-01,
          3.18748415e-01, 4.64313850e-02, 2.08943617e-02, 2.75328103e-02,
          7.19076470e-02, 7.23296106e-02, 8.36509019e-02, 3.61916512e-01,
          1.69210374e-01, 2.22489744e-01, 2.23227814e-01, 1.47268042e-01,
          6.98669851e-02, 7.70724118e-02, 5.68925664e-02, 8.64760503e-02,
          1.62023574e-01, 2.77001321e-01, 2.77001321e-01, 1.97894230e-01,
          8.97997320e-02, 6.11762926e-02, 1.65702865e-01, 1.09837152e-01,
          2.16236100e-01, 2.77001321e-01, 2.77001321e-01, 2.52405047e-01,
          2.73690242e-02, 3.72415632e-02, 2.25692820e-02, 4.10740785e-02,
          4.23064306e-02, 4.25899625e-02, 2.41459459e-01, 2.77001321e-01,
          2.77001321e-01, 3.59553210e-02, 3.87302823e-02, 1.31441588e-02,
          7.45906904e-02, 7.29103386e-02, 1.25134796e-01, 2.06672609e-01,
          2.69735843e-01, 2.69735843e-01, 1.40554622e-01, 1.07897617e-01,
          9.93648544e-02, 8.47311467e-02, 1.03953555e-01, 1.60613328e-01,
          2.69735843e-01, 2.46714309e-01, 2.63127565e-01, 1.51511401e-01,
          9.72146764e-02, 6.10058159e-02, 3.97485830e-02, 5.85297793e-02,
          1.33428112e-01, 2.69735843e-01, 2.69735843e-01, 2.69735843e-01,
          9.03588161e-02, 2.86247842e-02, 7.12871505e-03, 7.82357007e-02,
          1.13382839e-01, 1.97830006e-01, 1.84934363e-01, 1.93948820e-01,
          1.83446467e-01, 9.23010185e-02, 4.60432805e-02, 2.71783043e-02,
          6.67068809e-02, 1.30764082e-01, 1.91591546e-01, 2.10745350e-01,
          2.73706824e-01, 2.21826538e-01, 8.19845349e-02, 6.40272573e-02,
          5.67790493e-02, 6.30843639e-02, 8.05228800e-02, 1.91744506e-01,
          3.17249775e-01, 3.17249775e-01, 1.51910469e-01, 4.70557883e-02,
          4.18841541e-02, 4.77586463e-02, 7.10164532e-02, 1.13520652e-01,
          1.30217418e-01, 3.17249775e-01, 1.85728222e-01, 1.17159747e-01,
          4.19945568e-02, 7.75208920e-02, 8.20826963e-02, 1.15113035e-01,
          1.88292623e-01, 2.07088754e-01, 3.17249775e-01, 2.01319858e-01,
          3.58711109e-02, 1.44217527e-02, 6.18982688e-02, 5.49164340e-02,
          7.64135197e-02, 8.57409015e-02, 1.66126654e-01, 3.17249775e-01,
          3.00818413e-01, 1.95595443e-01, 1.05671659e-01, 4.27125692e-02,
          2.74977759e-02, 4.24125083e-02, 8.89442638e-02, 9.10407901e-02,
          3.00818413e-01, 3.00818413e-01, 1.95814133e-01, 6.74099326e-02,
          2.74790786e-02, 1.51915830e-02, 1.23426300e-02, 6.32617325e-02,
          1.44018099e-01, 3.00818413e-01, 2.08458796e-01, 1.09524794e-01,
          9.35193822e-02, 5.01815900e-02, 4.92900200e-02, 3.29846144e-02,
          7.20168874e-02, 1.84763372e-01, 3.00818413e-01, 2.24508971e-01,
          1.70636266e-01, 1.23037942e-01, 4.23082300e-02, 4.32329662e-02,
          3.46198976e-02, 1.25329286e-01, 3.00818413e-01, 3.00818413e-01,
          2.99832553e-01, 1.80798128e-01, 5.37461154e-02, 3.66120860e-02,
          5.08706309e-02, 5.03072962e-02, 5.03945239e-02, 1.31716505e-01,
          2.60542810e-01, 2.05095887e-01, 1.07697785e-01, 1.18100688e-01,
          1.20247535e-01, 1.24705382e-01, 1.00457713e-01, 6.38488382e-02,
          1.20967641e-01, 1.24869741e-01, 2.37335175e-01, 1.15371048e-01,
          4.20869514e-02, 4.80492227e-02, 9.00826529e-02, 2.20212355e-01,
          2.82902926e-01, 2.99832553e-01, 2.54427969e-01, 8.31593499e-02,
          1.95658077e-02, 1.40571622e-02, 1.23083837e-01, 1.93197891e-01,
          2.99832553e-01, 2.99832553e-01, 1.51505113e-01, 8.69680569e-02,
          2.04160079e-01, 1.09268114e-01, 6.66433796e-02, 3.13889980e-02,
          6.16532229e-02, 6.09157719e-02, 1.56881377e-01, 3.24755937e-01,
          3.24755937e-01, 3.24755937e-01, 1.29307091e-01, 6.57112226e-02,
          3.93015891e-02, 5.14862053e-02, 1.99117996e-02, 6.00057542e-02,
          2.20108688e-01, 3.24755937e-01, 2.10299194e-01, 2.01184958e-01,
          1.71019867e-01, 3.23299095e-02, 8.13944563e-02, 6.19335249e-02,
          6.75873756e-02, 1.19963177e-01, 1.35468110e-01, 3.05165470e-01,
          1.83051243e-01, 1.69809729e-01, 4.03521061e-02, 6.42835125e-02,
          1.96763873e-02, 3.48062068e-02, 9.43803340e-02, 2.67465562e-01,
          3.04071397e-01, 9.93648842e-02, 2.15809867e-02, 1.20827174e-02,
          1.55063150e-02, 8.41691531e-03, 3.26174200e-02, 1.23380706e-01,
          3.04071397e-01, 3.04071397e-01, 1.87471852e-01, 2.02359222e-02,
          5.83739439e-03, 1.45167345e-02, 7.28886575e-02, 1.24994166e-01,
          1.50470644e-01, 3.04071397e-01, 3.00968558e-01, 7.53395036e-02,
          5.09545095e-02, 2.12128535e-02, 2.51012910e-02, 3.49722756e-03,
          4.45342399e-02, 1.04098178e-01, 3.04071397e-01, 2.38106444e-01,
          5.38231879e-02, 2.46120505e-02, 2.20016390e-02, 4.87125777e-02,
          3.11670583e-02, 2.57861435e-01, 3.04071397e-01, 3.04071397e-01,
          2.76341349e-01, 2.24803939e-01, 1.88941173e-02, 3.17992531e-02,
          4.09037620e-02, 7.56247938e-02, 1.53050646e-01, 1.64460540e-01,
          2.76341349e-01, 2.76341349e-01, 2.61799634e-01, 3.26330326e-02,
          6.59225658e-02, 4.20676209e-02, 1.31791517e-01, 1.79733664e-01,
          2.52446085e-01, 2.37110347e-01, 9.78533924e-02, 4.25455719e-02,
          1.09046884e-02, 1.17902374e-02, 9.12999138e-02, 8.25725794e-02,
          2.76341349e-01, 2.76341349e-01, 2.76341349e-01, 5.57148010e-02,
          5.87123446e-02, 2.94156764e-02, 2.90475786e-02, 9.25254971e-02,
          1.21909857e-01, 1.91597581e-01, 2.34188989e-01, 1.84132367e-01,
          2.63744682e-01, 2.39136726e-01, 5.04145995e-02, 4.62268181e-02,
          2.92560682e-02, 1.87320933e-01, 2.63744682e-01, 2.63744682e-01,
          2.09058896e-01, 2.15811774e-01, 1.94959149e-01, 6.55830652e-02,
          3.40058506e-02, 3.19436379e-02, 1.16829731e-01, 2.37553984e-01,
          2.63744682e-01, 2.63744682e-01, 7.68065527e-02, 1.33225337e-01,
          6.75130785e-02, 4.54679504e-02, 6.39513806e-02, 7.93255419e-02,
          1.49156481e-01, 1.88801363e-01, 1.15059562e-01, 1.65146351e-01,
          2.61466950e-01, 1.02840543e-01, 4.92558368e-02, 4.07124907e-02,
          4.79386672e-02, 9.42368656e-02, 2.09936544e-01, 2.63744682e-01,
          2.31203303e-01, 7.22425058e-02, 4.22811061e-02, 2.75175460e-02,
          2.20112354e-02, 5.03202863e-02, 1.34618357e-01, 1.67632103e-01,
          2.95627445e-01, 2.45431915e-01, 1.89946294e-02, 1.15133980e-02,
          1.62960645e-02, 1.50029287e-02, 4.23006415e-02, 1.94318622e-01,
          2.87604004e-01, 2.95627445e-01, 2.18152836e-01, 1.35317072e-01,
          7.80511126e-02, 4.07498814e-02, 1.39464634e-02, 2.48003546e-02,
          7.59927258e-02, 1.65842876e-01, 2.95627445e-01, 2.17774227e-01,
          4.03740630e-02, 4.14824747e-02, 5.21538965e-02, 1.04504310e-01,
          1.33216381e-01, 2.95627445e-01, 2.76075065e-01, 2.95627445e-01,
          2.03441307e-01, 6.90372959e-02, 9.02722776e-02, 1.59401614e-02,
          2.11971309e-02, 5.18138520e-02, 2.39442214e-01, 2.78039604e-01,
          2.78039604e-01, 1.66540205e-01, 9.66199264e-02, 1.24393441e-01,
          2.53718458e-02, 3.72023992e-02, 5.98740503e-02, 1.73620939e-01,
          2.78039604e-01, 2.09979340e-01, 1.51297659e-01, 3.51360701e-02,
          5.86492494e-02, 8.48879889e-02, 1.74754351e-01, 2.41787866e-01,
          2.78039604e-01, 2.78039604e-01, 2.28545785e-01, 9.82510149e-02,
          4.04970497e-02, 7.31441379e-02, 1.03463285e-01, 1.13517992e-01,
          1.16791628e-01, 2.43054435e-01, 2.63927609e-01, 6.82762861e-02,
          7.95687661e-02, 4.79141437e-02, 2.90818717e-02, 2.22312324e-02,
          5.47237955e-02, 3.09706658e-01, 3.02884012e-01, 2.18086675e-01,
          1.01913363e-01, 2.19874680e-02, 9.14972369e-03, 2.11740681e-03,
          1.91220175e-02, 8.55661556e-02, 3.09706658e-01, 3.09706658e-01,
          8.04945529e-02, 2.68264897e-02, 2.35752594e-02, 2.24704053e-02,
          6.32013157e-02, 1.81313604e-01, 2.03116879e-01, 3.09706658e-01,
          2.12186202e-01, 1.49614573e-01, 1.85562987e-02, 8.57568160e-03,
          4.30075498e-03, 7.57933557e-02, 2.33069509e-01, 2.60435104e-01,
          3.09706658e-01, 2.52187937e-01, 2.53262781e-02, 6.71391049e-03 ]
      - [ 3.30430955e-01, 6.45154119e-02, 3.96863036e-02, 4.89609875e-02,
          6.88549429e-02, 1.62175968e-02, 9.32509601e-02, 1.54989794e-01,
          3.30430955e-01, 3.30430955e-01, 2.60886252e-01, 1.41478762e-01,
          9.57038328e-02, 6.39766902e-02, 2.08985079e-02, 8.10330212e-02,
          2.76469320e-01, 3.30430955e-01, 2.58223772e-01, 2.55416296e-02,
          3.38221043e-02, 6.91203624e-02, 1.12207979e-01, 5.17910831e-02,
          2.35133395e-02, 1.79590378e-02, 2.61426002e-01, 1.63005993e-01,
          9.00788233e-02, 7.20784962e-02, 1.30846962e-01, 1.78066298e-01,
          1.13487177e-01, 5.43531179e-02, 3.88610512e-02, 2.56002784e-01,
          1.77965418e-01, 2.24265307e-01, 7.88701102e-02, 4.09424268e-02,
          2.87263412e-02, 2.41575129e-02, 1.27575159e-01, 2.84506440e-01,
          2.84506440e-01, 2.84506440e-01, 9.92403626e-02, 4.39369455e-02,
          2.17169896e-02, 2.34916992e-02, 4.81140539e-02, 2.04688907e-01,
          2.84506440e-01, 2.84506440e-01, 8.99382681e-02, 7.30692372e-02,
          3.14694121e-02, 8.56749341e-02, 1.02580100e-01, 7.45427161e-02,
          8.93220603e-02, 1.12231113e-01, 1.90629914e-01, 2.84506440e-01,
          7.06266314e-02, 9.15982872e-02, 1.95174262e-01, 1.65741950e-01,
          1.05729230e-01, 1.98033139e-01, 2.04688281e-01, 2.84506440e-01,
          3.02893132e-01, 5.75745516e-02, 4.45960723e-02, 1.53100891e-02,
          1.16535518e-02, 4.20924798e-02, 9.56822187e-02, 1.74433693e-01,
          3.02893132e-01, 3.02893132e-01, 1.34799480e-01, 6.00475855e-02,
          2.59195361e-02, 1.34141073e-02, 1.62492022e-02, 7.08307996e-02,
          1.27646178e-01, 3.02893132e-01, 3.02893132e-01, 5.31597733e-02,
          9.56086591e-02, 1.64311945e-01, 1.91001758e-01, 1.20462656e-01,
          1.56567931e-01, 1.25889868e-01, 3.02893132e-01, 2.90300399e-01,
          7.22327828e-02, 6.26540780e-02, 8.75938535e-02, 1.25056714e-01,
          6.95946962e-02, 7.30774701e-02, 7.93704838e-02, 3.02893132e-01,
          2.89045483e-01, 1.28783152e-01, 4.93716523e-02, 6.60304055e-02,
          5.03889918e-02, 1.37751736e-02, 9.72759947e-02, 2.83354431e-01,
          3.12556952e-01, 1.30269468e-01, 8.53344426e-02, 3.04427557e-02,
          7.28335232e-02, 1.15658619e-01, 9.73095745e-02, 1.85912773e-01,
          3.12556952e-01, 3.12556952e-01, 1.82751670e-01, 5.77832311e-02,
          3.59524935e-02, 4.55298051e-02, 2.55999807e-02, 1.91586744e-02,
          5.92914447e-02, 1.78303510e-01, 3.12556952e-01, 1.45590544e-01,
          4.80506569e-02, 1.20401978e-02, 4.04309966e-02, 4.30147201e-02,
          4.39166240e-02, 1.33882970e-01, 3.12556952e-01, 3.12556952e-01,
          1.14520915e-01, 9.60908160e-02, 3.64773162e-02, 5.49543500e-02,
          1.08411640e-01, 1.25218958e-01, 1.29110903e-01, 2.50742644e-01,
          2.62308329e-01, 1.80728495e-01, 1.34142637e-01, 1.00141585e-01,
          9.12536383e-02, 1.60500959e-01, 1.90657198e-01, 1.68833598e-01,
          1.40940055e-01, 2.62308329e-01, 1.64864749e-01, 8.65292698e-02,
          1.34253446e-02, 4.73535396e-02, 4.11120355e-02, 8.91435742e-02,
          1.56365380e-01, 2.53498286e-01, 2.62308329e-01, 2.62308329e-01,
          1.46605521e-01, 9.15571377e-02, 8.55974033e-02, 7.18484521e-02,
          2.26929083e-01, 2.62308329e-01, 2.05130875e-01, 2.62308329e-01,
          1.27466232e-01, 6.56647608e-02, 6.24304116e-02, 7.07011670e-02,
          1.31265551e-01, 1.25482872e-01, 1.60325989e-01, 1.35334253e-01,
          2.30678931e-01, 1.59090653e-01, 6.08889088e-02, 4.21030596e-02,
          7.83754662e-02, 1.26854777e-01, 1.43550739e-01, 1.64897770e-01,
          1.32914796e-01, 2.40007877e-01, 2.06990048e-01, 8.37445334e-02,
          8.76498520e-02, 4.59660590e-02, 7.99847171e-02, 1.70461893e-01,
          2.42630586e-01, 2.42630586e-01, 2.42630586e-01, 2.32817903e-01,
          1.06123373e-01, 1.18623801e-01, 1.66848004e-01, 2.17360765e-01,
          2.42630586e-01, 2.42630586e-01, 2.42630586e-01, 2.42630586e-01,
          1.16578296e-01, 5.91355711e-02, 8.27115029e-02, 8.50209743e-02,
          7.50242472e-02, 1.13061957e-01, 1.78978339e-01, 1.59516230e-01,
          2.04072118e-01, 1.33916348e-01, 9.16547850e-02, 6.46752715e-02,
          5.79367392e-02, 5.53040393e-02, 9.57231596e-02, 1.37627751e-01,
          2.25606278e-01, 2.25606278e-01, 1.95829034e-01, 1.39642999e-01,
          1.99572772e-01, 2.25606278e-01, 1.68093264e-01, 2.23320603e-01,
          2.08365113e-01, 2.25606278e-01, 2.25606278e-01, 2.21345335e-01,
          2.25606278e-01, 1.85342073e-01, 1.58417284e-01, 1.39929831e-01,
          1.70048997e-01, 1.33503109e-01, 1.83697104e-01, 2.25606278e-01,
          5.11907153e-02, 1.91785600e-02, 1.29181549e-01, 2.78242797e-01,
          2.39239126e-01, 1.16345026e-01, 1.36318684e-01, 1.04999453e-01,
          5.76477870e-02, 2.11599525e-02, 3.41166556e-02, 1.62640497e-01,
          3.03218871e-01, 3.03218871e-01, 3.03218871e-01, 1.19104259e-01,
          2.64473483e-02, 3.77918854e-02, 7.73106068e-02, 2.54368726e-02,
          9.33339447e-02, 1.67268887e-01, 7.59368539e-02, 1.12308539e-01,
          3.03218871e-01, 3.03218871e-01, 1.18984267e-01, 6.08826615e-02,
          4.21568863e-02, 1.14938818e-01, 2.73499340e-01, 1.95875809e-01,
          2.39649430e-01, 1.06820323e-01, 9.26905945e-02, 8.32941607e-02,
          2.54742168e-02, 2.11127121e-02, 2.84970496e-02, 1.31482944e-01,
          2.05230311e-01, 1.36613533e-01, 4.96018864e-02, 1.36958072e-02,
          2.56058984e-02, 1.57579064e-01, 1.17153414e-01, 2.68113941e-01,
          2.94448853e-01, 2.94448853e-01, 2.14879677e-01, 1.82664871e-01,
          6.19401410e-02, 1.27959505e-01, 1.41693968e-02, 5.15445918e-02,
          4.28710394e-02, 1.11616589e-01, 1.41420856e-01, 1.17604360e-01,
          4.31640968e-02, 4.11030017e-02, 2.54467037e-02, 1.65781453e-01,
          2.28200734e-01, 2.64828652e-01, 2.94448853e-01, 2.94448853e-01,
          2.77591765e-01, 2.01573834e-01, 1.16532072e-01, 1.43660381e-01,
          1.00141644e-01, 1.04816422e-01, 2.71897674e-01, 2.75380582e-01,
          2.75380582e-01, 1.81567952e-01, 1.72533244e-01, 5.93690351e-02,
          9.07144397e-02, 4.36825082e-02, 5.61217628e-02, 1.21033348e-01,
          2.50898153e-01, 2.75380582e-01, 8.69210362e-02, 8.26322734e-02,
          5.03412932e-02, 6.92799687e-02, 1.48514360e-01, 1.57320812e-01,
          2.65683234e-01, 2.75380582e-01, 2.75380582e-01, 1.75074726e-01,
          1.41966864e-01, 5.97482212e-02, 1.05133072e-01, 7.26723298e-02,
          7.58025572e-02, 1.09557144e-01, 2.36351550e-01, 2.59344965e-01,
          8.14545155e-02, 5.31993955e-02, 3.04581132e-02, 7.00219795e-02,
          1.31415129e-01, 1.00924887e-01, 1.08651519e-01, 1.38968825e-01,
          1.06402852e-01, 8.94041359e-02, 1.24359071e-01, 1.99059114e-01,
          2.95901746e-01, 2.40491480e-01, 1.38929129e-01, 4.73464243e-02,
          3.65163758e-02, 6.41993284e-02, 4.61235270e-02, 1.23189926e-01,
          2.95901746e-01, 2.95901746e-01, 1.65354267e-01, 2.12359294e-01,
          1.34287447e-01, 1.77475289e-01, 1.70095667e-01, 9.37663987e-02,
          9.96146575e-02, 7.51113147e-02, 1.79228827e-01, 2.86586970e-01,
          2.95901746e-01, 2.21038759e-01, 1.12362228e-01, 9.63426083e-02,
          5.86334765e-02, 9.37445983e-02, 9.71147045e-02, 1.72513604e-01,
          2.16956943e-01, 1.00100972e-01, 1.93803012e-02, 3.80338356e-02,
          4.46871221e-02, 7.30714351e-02, 1.41112462e-01, 2.36229345e-01,
          3.25865448e-01, 3.25865448e-01, 1.54470026e-01, 7.15098381e-02,
          8.60332102e-02, 5.40296435e-02, 1.95855126e-01, 3.10638279e-01,
          2.86637306e-01, 3.25865448e-01, 1.54868573e-01, 1.85586765e-01,
          1.08214587e-01, 4.66716625e-02, 5.20299524e-02, 4.68872339e-02,
          1.16937332e-01, 1.33469254e-01, 1.77035615e-01, 1.22956961e-01,
          1.17859818e-01, 7.29671866e-02, 7.00263306e-02, 2.88015530e-02,
          5.12509830e-02, 1.50814056e-01, 2.07197204e-01, 1.77429467e-01,
          1.97408170e-01, 6.86426684e-02, 4.47219610e-02, 2.95227077e-02,
          3.16103436e-02, 1.18384019e-01, 2.28313223e-01, 2.89555877e-01,
          3.00321668e-01, 2.42419407e-01, 1.68070108e-01, 1.50879532e-01,
          1.27220273e-01, 1.43399566e-01, 3.00321668e-01, 3.00321668e-01,
          3.00321668e-01, 3.00321668e-01, 6.29303828e-02, 4.76436727e-02,
          4.30013239e-02, 4.90757003e-02, 1.60511117e-02, 2.48091985e-02,
          4.15920578e-02, 8.42118040e-02, 9.73462015e-02, 7.44272470e-02,
          7.69465566e-02, 6.83317408e-02, 5.71137890e-02, 3.42627801e-02,
          9.49274674e-02, 1.40127510e-01, 2.55039960e-01, 2.40940735e-01,
          1.19253792e-01, 1.26937613e-01, 1.19442686e-01, 1.43899679e-01,
          7.61744380e-02, 2.10370168e-01, 2.64854997e-01, 2.64854997e-01,
          2.59903908e-01, 1.37216717e-01, 1.48192883e-01, 1.19832866e-01,
          1.09378412e-01, 8.79853740e-02, 2.21144870e-01, 2.64854997e-01,
          2.64167041e-01, 1.79214582e-01, 4.11884859e-02, 3.57493423e-02,
          2.38694064e-02, 1.99885499e-02, 2.13768091e-02, 9.19409916e-02,
          2.56791592e-01, 2.64854997e-01, 1.30295113e-01, 7.16581419e-02,
          5.38278446e-02, 3.09540387e-02, 3.29420492e-02, 3.62487547e-02,
          1.87009171e-01, 2.64854997e-01, 2.64854997e-01, 1.60472423e-01,
          4.73845452e-02, 1.91586968e-02, 2.56952886e-02, 4.57429625e-02,
          1.11005396e-01, 1.97941959e-01, 2.95381099e-01, 2.22583234e-01,
          1.19362570e-01, 2.69075371e-02, 1.67944133e-02, 2.54140068e-02,
          3.41217704e-02, 7.36824498e-02, 1.43984646e-01, 1.04589961e-01,
          8.68558586e-02, 4.05001007e-02, 2.09779367e-01, 3.94112803e-02,
          3.91602553e-02, 1.32005006e-01, 2.95381099e-01, 2.95381099e-01,
          2.95381099e-01, 2.95381099e-01, 2.95381099e-01, 6.01667166e-02,
          1.11781424e-02, 1.41501678e-02, 7.42817903e-03, 1.29350677e-01,
          2.58034110e-01, 2.74892211e-01, 2.25025907e-01, 1.60480037e-01,
          3.37083675e-02, 6.31985217e-02, 4.93440963e-02, 5.29169776e-02,
          1.28134966e-01, 1.28284141e-01, 6.46096021e-02, 1.04835324e-01,
          5.10264188e-02, 2.71168381e-01, 2.23477095e-01, 1.67811617e-01,
          2.71168381e-01, 2.71168381e-01, 2.71168381e-01, 1.30758539e-01,
          2.07010984e-01, 1.99661165e-01, 6.62720278e-02, 3.36234123e-02,
          4.86133285e-02, 2.19237134e-02, 5.73188365e-02, 1.09295040e-01,
          1.27765581e-01, 1.86129868e-01, 1.53981775e-01, 2.06451952e-01,
          2.39914894e-01, 2.63028234e-01, 2.30451941e-01, 1.61988750e-01,
          1.99358612e-01, 1.66035593e-01, 1.81921646e-01, 1.29753813e-01,
          2.64159292e-01, 1.92590624e-01, 1.85205907e-01, 2.64159292e-01,
          2.64159292e-01, 2.18738213e-01, 1.16842002e-01, 8.84836912e-02,
          1.47593915e-01, 1.38769671e-01, 1.47282615e-01, 1.10920087e-01,
          1.50495961e-01, 2.05107704e-01, 1.32276356e-01, 9.17477161e-02,
          4.85994108e-02, 1.83924913e-01, 2.05307066e-01, 2.64159292e-01,
          2.64159292e-01, 1.88936606e-01, 1.24338359e-01, 9.84633714e-02,
          1.08376913e-01, 6.93300292e-02, 6.80841058e-02, 1.99595779e-01,
          2.43539512e-01, 1.48268983e-01, 3.88257056e-02, 6.41302913e-02,
          4.45369147e-02, 1.10040784e-01, 9.78746936e-02, 1.76813826e-01,
          1.80649266e-01, 2.03762531e-01, 1.16643123e-01, 7.39403069e-02,
          8.05920139e-02, 8.92530084e-02, 9.80245769e-02, 7.79740140e-02,
          2.43453160e-01, 2.68694609e-01, 2.30535671e-01, 2.14121506e-01,
          1.01271778e-01, 7.79211596e-02, 1.20652840e-01, 1.08560346e-01,
          8.46624374e-02, 2.02894047e-01, 2.03146443e-01, 1.91531375e-01,
          1.15093060e-01, 2.24734601e-02, 4.47521694e-02, 7.54678026e-02,
          1.27146229e-01, 1.40588492e-01, 2.68694609e-01, 2.10820466e-01,
          9.03829858e-02, 9.28866118e-02, 1.18974172e-01, 2.47002378e-01,
          2.68694609e-01, 1.89901546e-01, 1.67571619e-01, 2.68694609e-01,
          1.34331420e-01, 1.05100974e-01, 1.55558988e-01, 4.71379533e-02,
          6.32738099e-02, 1.27191722e-01, 1.48050040e-01, 1.75389305e-01,
          1.90647498e-01, 5.90890311e-02, 5.31626418e-02, 6.53501004e-02,
          5.54448031e-02, 6.43915087e-02, 2.69655585e-01, 2.70740211e-01,
          2.53287911e-01, 1.54946879e-01, 8.21844414e-02, 3.42661850e-02,
          1.12720311e-01, 1.25181213e-01, 2.59351075e-01, 2.88224608e-01,
          1.69572487e-01, 1.73230276e-01, 1.07336223e-01, 4.12847511e-02,
          2.21879911e-02, 9.26832780e-02, 2.68658489e-01, 2.88224608e-01,
          2.88224608e-01, 2.36957431e-01, 1.23384111e-01, 5.48106357e-02,
          5.39140105e-02, 8.36887434e-02, 1.29636228e-01, 1.63305819e-01,
          8.69639069e-02, 1.58612177e-01, 9.97823849e-02, 6.34452179e-02,
          4.46534716e-02, 1.32900521e-01, 1.79305211e-01, 2.27715597e-01,
          2.17190742e-01, 1.11837484e-01, 1.42091185e-01, 1.18916914e-01,
          7.47765526e-02, 4.87847291e-02, 2.25556772e-02, 5.26405424e-02,
          1.43575937e-01, 2.93810129e-01, 2.93810129e-01, 2.93810129e-01,
          1.09905146e-01, 2.22362652e-02, 2.45900899e-02, 7.45395645e-02,
          1.58962935e-01, 2.93810129e-01, 2.93810129e-01, 2.93810129e-01,
          2.93810129e-01, 1.05827890e-01, 7.22694397e-02, 5.23738787e-02,
          1.16698474e-01, 8.64731371e-02, 9.61406082e-02, 1.12908520e-01,
          1.07278891e-01, 1.80571929e-01, 2.74130613e-01, 2.30978072e-01,
          5.99597991e-02, 1.15543693e-01, 5.04560843e-02, 4.39813398e-02,
          3.78598496e-02, 7.05429912e-02, 2.15557754e-01, 3.22446853e-01,
          3.22446853e-01, 2.30182007e-01, 9.83740091e-02, 8.44145119e-02,
          1.81026608e-01, 2.32031360e-01, 2.90776312e-01, 2.70864755e-01,
          1.46861896e-01, 1.45959884e-01, 1.02212369e-01, 1.08756311e-01,
          6.77099600e-02, 5.73630035e-02, 7.97764882e-02, 1.45236194e-01,
          1.69382393e-01, 1.19318888e-01, 1.50097817e-01, 1.36309475e-01,
          1.71220735e-01, 3.41534987e-02, 3.51488814e-02, 4.77511212e-02,
          2.20461339e-01, 2.40697786e-01, 2.40697786e-01, 1.90474600e-01,
          1.70432866e-01, 1.04472362e-01, 2.49029025e-02, 3.09993252e-02,
          1.38059342e-02, 8.67779702e-02, 1.86310843e-01, 2.19079062e-01,
          1.51650339e-01, 1.84118152e-01, 1.51801527e-01, 5.82467876e-02,
          1.01728097e-01, 8.08725655e-02, 1.68555081e-01, 2.05045640e-01,
          2.40697786e-01, 2.40697786e-01, 1.89060554e-01, 1.50293455e-01,
          5.70990331e-02, 7.62048513e-02, 1.85165256e-01, 2.25201219e-01,
          2.40697786e-01, 2.35578716e-01, 1.43361047e-01, 2.40697786e-01,
          8.65340307e-02, 1.79711692e-02, 3.03441063e-02, 1.89858973e-02,
          3.90543491e-02, 8.44866931e-02, 1.68527633e-01, 2.07208008e-01,
          1.90792009e-01, 3.69354822e-02, 6.15674406e-02, 8.92199725e-02,
          5.45667820e-02, 4.79601473e-02, 1.27297178e-01, 3.06703061e-01,
          3.06703061e-01, 8.12983885e-02, 1.31911859e-01, 4.59627137e-02,
          5.59479669e-02, 1.66636571e-01, 1.94747269e-01, 2.21367776e-01,
          2.64305681e-01, 2.18208745e-01, 2.52317280e-01, 7.54740685e-02,
          1.05761932e-02, 2.80250534e-02, 8.20785612e-02, 1.22022606e-01,
          2.55802393e-01, 3.06703061e-01, 3.06703061e-01, 2.04536006e-01,
          6.40563518e-02, 1.21440545e-01, 1.24246784e-01, 5.18317819e-02,
          5.56103028e-02, 1.24005407e-01, 3.54906201e-01, 2.32591003e-01,
          5.19562028e-02, 1.14546962e-01, 9.01291966e-02, 5.99652976e-02,
          2.64360867e-02, 7.28188381e-02, 5.92961013e-02, 1.22308575e-01,
          1.06054276e-01, 1.20062076e-01, 4.46226709e-02, 1.77461617e-02,
          7.88761023e-03, 2.81124376e-02, 7.44818151e-02, 3.54906201e-01,
          3.54906201e-01, 3.54906201e-01, 1.15368523e-01, 6.28556088e-02,
          2.23353133e-02, 1.07664401e-02, 4.44470569e-02, 1.14397191e-01,
          3.31062734e-01, 3.54906201e-01, 1.46751657e-01, 8.15934464e-02,
          9.77563038e-02, 7.06131160e-02, 6.09032027e-02, 4.67654876e-02,
          9.06399861e-02, 5.56323342e-02, 6.22198395e-02, 7.81015456e-02,
          1.94371954e-01, 7.57712349e-02, 7.33725056e-02, 9.15204361e-02,
          3.23157907e-01, 3.23157907e-01, 2.47108862e-01, 1.10891737e-01,
          9.28625539e-02, 1.42394140e-01, 9.86964628e-02, 1.82657801e-02,
          4.27475944e-02, 1.20275125e-01, 1.52931392e-01, 1.67692184e-01,
          1.57746658e-01, 6.55376092e-02, 8.46764222e-02, 7.84294680e-02,
          7.96023831e-02, 3.18282843e-01, 3.23157907e-01, 3.23157907e-01,
          3.23157907e-01, 1.67963549e-01, 1.21777035e-01, 4.79143858e-02,
          3.41342539e-02, 8.53162408e-02, 1.04992464e-01, 2.31614277e-01,
          2.42982417e-01, 1.38216838e-01, 4.28423882e-02, 3.97664085e-02,
          1.58308372e-02, 3.16813551e-02, 8.92051011e-02, 1.84936076e-01,
          2.81140029e-01, 2.81140029e-01, 2.27735922e-01, 4.88167405e-02,
          1.48197189e-02, 1.14949699e-02, 2.93200277e-02, 1.25518769e-01,
          2.81140029e-01, 2.81140029e-01, 2.81140029e-01, 1.97955057e-01,
          6.95959181e-02, 8.78532380e-02, 1.75562501e-02, 2.65324302e-02,
          1.51565328e-01, 2.81140029e-01, 2.81140029e-01, 2.81140029e-01,
          1.33385941e-01, 2.51154229e-02, 3.53403278e-02, 1.30027970e-02,
          1.52238021e-02, 3.02369762e-02, 1.09373964e-01, 2.91356862e-01,
          2.91356862e-01, 2.58424610e-01, 7.38021135e-02, 5.23958914e-03,
          1.05769606e-02, 9.45165195e-03, 4.15194184e-02, 1.40712500e-01,
          2.63387024e-01, 2.91356862e-01, 2.46823221e-01, 6.68128654e-02,
          3.40428501e-02, 2.20571831e-02, 2.00220440e-02, 5.21526523e-02,
          1.47535458e-01, 2.42904320e-01, 2.91356862e-01, 2.91356862e-01,
          4.86268699e-02, 7.02917716e-03, 7.60556711e-03, 2.63184682e-02,
          2.75719166e-02, 9.16906744e-02, 2.34678224e-01, 2.91356862e-01,
          2.91356862e-01, 8.16176236e-02, 3.42387930e-02, 1.55684212e-02,
          1.76176690e-02, 4.18594033e-02, 1.38220668e-01, 1.90388337e-01,
          3.13998669e-01, 1.98861361e-01, 8.96065757e-02, 8.98616761e-02,
          5.99601120e-02, 3.65063772e-02, 5.61367869e-02, 5.63421547e-02,
          1.68308437e-01, 3.16168725e-01, 1.76250711e-01, 1.03484809e-01,
          5.79117015e-02, 5.79657443e-02, 2.00908910e-02, 4.77989502e-02,
          1.62771434e-01, 3.16168725e-01, 3.16168725e-01, 2.66551167e-01,
          1.83692008e-01, 7.03484491e-02, 2.49673128e-02, 1.41835157e-02,
          5.64303212e-02, 1.08643800e-01, 3.16168725e-01, 3.16168725e-01,
          1.18844040e-01, 1.63153738e-01, 3.87500711e-02, 1.78042799e-02,
          1.01401545e-01, 5.87969758e-02, 6.22127764e-02, 5.92378676e-02,
          1.50861934e-01, 1.41130358e-01, 1.21046446e-01, 2.23813236e-01,
          1.80742517e-01, 1.46232799e-01, 5.74792288e-02, 5.39797731e-02,
          1.35261625e-01, 2.19548419e-01, 2.14005947e-01, 1.88290790e-01,
          1.35841593e-01, 1.79209307e-01, 9.26206708e-02, 1.44126251e-01,
          9.94936004e-02, 1.25098407e-01, 2.04566568e-01, 2.33577639e-01,
          1.84211522e-01, 2.33577639e-01, 1.79763407e-01, 2.03195721e-01,
          1.38472348e-01, 5.99037483e-02, 1.23470500e-01, 2.33577639e-01,
          2.33577639e-01, 2.33577639e-01, 2.02222317e-01, 2.33577639e-01,
          1.28500566e-01, 3.97727005e-02, 3.32800969e-02, 1.32227167e-01,
          1.91314742e-01, 1.94584846e-01, 1.42256737e-01, 8.87970254e-02,
          1.36583403e-01, 6.85233548e-02, 1.63987856e-02, 2.51424070e-02,
          9.99974608e-02, 1.57292739e-01, 2.37972885e-01, 2.37972885e-01,
          2.37972885e-01, 1.57293856e-01, 2.19269380e-01, 7.92419165e-02,
          4.18983698e-02, 1.26389280e-01, 2.37972885e-01, 2.37972885e-01,
          1.92004800e-01, 1.29508212e-01, 2.37972885e-01, 1.29086062e-01,
          8.25408697e-02, 3.76581848e-02, 1.07539855e-01, 2.14755014e-01,
          2.37972885e-01, 2.37972885e-01, 2.37972885e-01, 2.37972885e-01,
          2.50040330e-02, 6.65106438e-03, 3.81415547e-03, 2.51208972e-02,
          8.55740532e-02, 3.31413120e-01, 3.31413120e-01, 1.94440678e-01,
          9.65882614e-02, 1.04597425e-02, 3.06271971e-03, 5.89813897e-03,
          1.38768498e-02, 4.42013368e-02, 3.31413120e-01, 3.31413120e-01,
          4.26690131e-02, 1.24446088e-02, 5.22791930e-02, 3.81689779e-02,
          7.28007546e-03, 3.19903903e-02, 1.82340205e-01, 3.31413120e-01,
          3.31413120e-01, 1.43466502e-01, 1.47433415e-01, 9.65066161e-03,
          7.17575289e-03, 3.51667381e-03, 5.62093081e-03, 1.75255522e-01,
          3.31413120e-01, 2.35796407e-01, 1.54118976e-02, 1.49050867e-02,
          5.58134429e-02, 1.71131250e-02, 3.73521782e-02, 6.29175082e-02,
          9.25790370e-02, 3.03162545e-01, 2.02900052e-01, 5.40383831e-02,
          5.35542779e-02, 8.24147761e-02, 1.54517546e-01, 1.77966535e-01,
          2.02162936e-01, 3.03162545e-01, 2.52261668e-01, 1.24632232e-01,
          1.37656465e-01, 9.03725326e-02, 2.54767872e-02, 2.90612299e-02,
          1.90349109e-02, 3.38193849e-02, 2.30622932e-01, 3.03162545e-01,
          2.50238568e-01, 7.22800195e-02, 5.61099872e-02, 1.40294611e-01,
          2.75597215e-01, 8.16384852e-02, 8.72105435e-02, 1.93951473e-01,
          2.42598891e-01, 2.55236000e-01, 1.81393325e-01, 1.25925973e-01,
          6.59715161e-02, 1.90085903e-01, 2.83548266e-01, 2.83548266e-01,
          2.83548266e-01, 2.10490167e-01, 8.60679150e-02, 1.39907613e-01,
          7.89408609e-02, 3.69217768e-02, 1.14989392e-01, 2.32526779e-01,
          2.83548266e-01, 2.83548266e-01, 9.91026908e-02, 1.81309897e-02,
          5.89482784e-02, 3.79527844e-02, 1.72337011e-01, 2.83548266e-01,
          1.52242362e-01, 1.62809819e-01, 1.92062303e-01, 1.04223557e-01,
          1.69020340e-01, 1.27737850e-01, 9.23823640e-02, 1.02316558e-01,
          1.53296232e-01, 1.25802770e-01, 2.10901260e-01, 1.50014699e-01,
          5.18101156e-02, 8.12456757e-02, 5.59699126e-02, 5.73900454e-02,
          9.66095924e-03, 2.06224956e-02, 5.30748628e-02, 1.24524049e-01,
          2.99824864e-01, 2.84607023e-01, 1.70528479e-02, 1.79245975e-02,
          8.67010839e-03, 1.67731363e-02, 4.42584381e-02, 1.34843618e-01,
          2.99824864e-01, 2.99824864e-01, 2.99824864e-01, 5.00276648e-02,
          6.37639686e-02, 2.10801307e-02, 2.48444509e-02, 4.47679944e-02,
          6.03717305e-02, 1.22529201e-01, 2.97417700e-01, 2.49420613e-01,
          1.94577854e-02, 2.08590031e-02, 3.26875634e-02, 1.44074196e-02,
          9.23781246e-02, 2.28429615e-01, 2.99824864e-01, 2.99824864e-01,
          2.99824864e-01, 2.95450352e-02, 5.86600713e-02, 2.66131479e-02,
          3.31438035e-02, 8.95149857e-02, 2.09914505e-01, 2.72733539e-01,
          2.70102650e-01, 1.93645433e-01, 7.11081550e-02, 5.58664091e-02,
          1.61171518e-02, 3.51634771e-02, 8.36294964e-02, 1.74802467e-01,
          2.72733539e-01, 2.72733539e-01, 4.02064323e-02, 4.85248230e-02,
          1.77046806e-02, 7.60452170e-03, 4.41775694e-02, 2.23076761e-01,
          2.72733539e-01, 2.72733539e-01, 2.67699152e-01, 2.04175308e-01,
          2.34832577e-02, 6.76209405e-02, 1.86657552e-02, 7.08642974e-02,
          2.60432243e-01, 2.72733539e-01, 2.72733539e-01, 1.19743310e-01,
          4.35796715e-02, 1.84867792e-02, 3.36945355e-02, 1.71715915e-02,
          5.85990548e-02, 1.04115590e-01, 7.11861476e-02, 1.27871811e-01,
          1.12106331e-01, 1.91297755e-01, 2.22005755e-01, 1.57603115e-01,
          1.15001507e-01, 1.00825593e-01, 8.25765505e-02, 2.63987388e-02,
          1.43003911e-01, 2.07133666e-01, 2.37466753e-01, 2.39821240e-01,
          1.81061640e-01, 1.98866338e-01, 1.36596814e-01, 1.16734713e-01,
          6.43477812e-02, 1.10783309e-01, 1.04688764e-01, 2.33967483e-01,
          2.39821240e-01, 2.39821240e-01, 1.68208614e-01, 1.06068350e-01,
          7.61572197e-02, 5.95792718e-02, 1.35425091e-01, 1.77217767e-01,
          2.39821240e-01, 2.39821240e-01, 2.39821240e-01, 2.39821240e-01,
          1.29359394e-01, 7.17041865e-02, 6.13765344e-02, 1.09574631e-01,
          1.76492199e-01, 2.29055896e-01, 2.34934792e-01, 1.71072498e-01,
          1.94518059e-01, 7.77098015e-02, 8.56110305e-02, 6.09226823e-02,
          5.46779558e-02, 1.66507393e-01, 2.34934792e-01, 2.34934792e-01,
          1.97347641e-01, 1.90831840e-01, 9.50066745e-02, 7.31064975e-02,
          1.30389571e-01, 1.40144438e-01, 2.06798628e-01, 2.34934792e-01,
          2.34934792e-01, 2.23182425e-01, 1.74479485e-01, 5.99889494e-02,
          7.61527121e-02, 1.18134223e-01, 9.55204740e-02, 1.83209836e-01,
          2.19677016e-01, 2.34934792e-01, 2.14615703e-01, 1.43413186e-01,
          4.00008559e-02, 4.11716774e-02, 1.94513425e-02, 2.44187638e-02,
          2.05672964e-01, 3.38694423e-01, 2.53843278e-01, 1.25586912e-01,
          1.24593981e-01, 9.07481555e-03, 1.13084512e-02, 5.02895145e-03,
          6.18296023e-03, 2.71905392e-01, 3.38694423e-01, 1.34635821e-01,
          1.89863648e-02, 1.43580474e-02, 3.53950001e-02, 4.08277027e-02,
          4.26855907e-02, 4.91958372e-02, 2.11856261e-01, 2.85198957e-01,
          2.42771596e-01, 1.92796797e-01, 1.18151844e-01, 7.94707518e-03,
          1.31011121e-02, 9.11462680e-03, 1.28081292e-02, 3.20533603e-01,
          3.38694423e-01, 2.56039470e-01, 6.44730777e-02, 2.97062695e-02,
          8.09515361e-03, 1.59517080e-02, 3.07295495e-03, 1.02705983e-02,
          2.99261570e-01, 3.46190304e-01, 1.74636289e-01, 2.98437867e-02,
          2.22062301e-02, 4.14809622e-02, 6.43014237e-02, 1.04064355e-02,
          1.68647375e-02, 9.38636214e-02, 2.24337578e-01, 3.20928186e-01,
          1.31852284e-01, 5.81220873e-02, 9.97557957e-03, 7.14914966e-03,
          3.44289513e-03, 7.60229724e-03, 3.46190304e-01, 3.46190304e-01,
          3.46190304e-01, 1.72975659e-02, 1.15183797e-02, 3.36791612e-02,
          1.54632600e-02, 2.17417497e-02, 3.23397182e-02, 1.78989112e-01,
          3.03266466e-01, 2.64527947e-01, 7.69801587e-02, 5.17651029e-02,
          1.34534866e-01, 1.70273095e-01, 4.22766432e-02, 3.07713691e-02,
          4.31525484e-02, 2.19380990e-01, 3.12690318e-01, 3.12690318e-01,
          1.09785266e-01, 1.10409178e-01, 1.27444208e-01, 6.81687668e-02,
          7.87249282e-02, 1.33934796e-01, 2.21568927e-01, 3.12690318e-01,
          1.78538963e-01, 9.37339291e-02, 8.03145468e-02, 3.77419740e-02,
          6.32785186e-02, 6.14982396e-02, 8.80881473e-02, 1.83544770e-01,
          3.12690318e-01, 1.90784782e-01, 1.44982502e-01, 6.95626885e-02,
          4.23896238e-02, 6.03542402e-02, 5.96664287e-02, 1.56468213e-01,
          2.29137495e-01, 3.12331468e-01, 1.60610721e-01, 1.35036707e-01,
          3.96623984e-02, 8.26026723e-02, 1.16885632e-01, 1.75498560e-01,
          2.90237546e-01, 1.74839437e-01, 1.02930978e-01, 7.26994947e-02,
          4.34291214e-02, 4.44108807e-02, 1.21639386e-01, 2.44378045e-01,
          2.90237546e-01, 2.90237546e-01, 2.90237546e-01, 1.99653774e-01,
          1.24567516e-01, 5.46857379e-02, 3.39237601e-02, 3.82659473e-02,
          5.18561006e-02, 8.08625966e-02, 1.07996143e-01, 1.19386174e-01,
          1.57862321e-01, 1.60022303e-01, 5.30379266e-02, 7.77382180e-02,
          6.16039075e-02, 1.01616442e-01, 1.74124792e-01, 1.71774879e-01,
          2.01335177e-01, 2.86806226e-01, 2.90237546e-01, 2.14418620e-01,
          7.51376972e-02, 2.62234598e-01, 2.62234598e-01, 2.62234598e-01,
          2.62234598e-01, 2.09476352e-01, 1.32181361e-01, 8.24542195e-02,
          7.81043619e-02, 8.23218152e-02, 2.62234598e-01, 2.62234598e-01,
          1.03795171e-01, 9.66542289e-02, 7.62690604e-02, 5.55338487e-02,
          5.23942672e-02, 7.67231882e-02, 1.29295096e-01, 1.17873766e-01,
          1.59260571e-01, 1.15783691e-01, 1.12595037e-01, 1.40080929e-01,
          1.68730885e-01, 1.79502130e-01, 2.62234598e-01, 2.62234598e-01,
          2.29910895e-01, 1.73249349e-01, 4.47483249e-02, 4.30240072e-02,
          3.85061093e-02, 5.52021526e-02, 5.71982302e-02, 2.56942481e-01,
          1.30058974e-01, 9.84664708e-02, 4.16260734e-02, 9.32186544e-02,
          1.03166215e-01, 2.12052092e-01, 2.30397686e-01, 2.30397686e-01,
          1.67356357e-01, 1.03237994e-01, 7.89745152e-02, 8.40936750e-02,
          9.45091099e-02, 1.51954472e-01, 2.30397686e-01, 2.30397686e-01,
          2.30397686e-01, 2.30397686e-01, 1.05121650e-01, 6.23466559e-02,
          5.36274016e-02, 1.03654154e-01, 1.43618807e-01, 2.00551286e-01,
          2.30397686e-01, 1.98934838e-01, 1.83420032e-01, 1.50138125e-01,
          6.79911077e-02, 9.38268900e-02, 1.24083452e-01, 2.30397686e-01,
          2.01300070e-01, 2.30397686e-01, 1.88990474e-01, 2.30397686e-01,
          1.11345515e-01, 7.72058964e-02, 1.59824461e-01, 1.59453169e-01,
          2.28907421e-01, 1.80274904e-01, 2.28907421e-01, 1.90769777e-01,
          2.13849008e-01, 1.23604655e-01, 7.76584223e-02, 1.63816020e-01,
          1.91324413e-01, 1.64137512e-01, 1.33477271e-01, 2.28907421e-01,
          1.85487852e-01, 1.55927420e-01, 1.50573418e-01, 7.90954456e-02,
          1.45249218e-01, 1.52318522e-01, 2.28907421e-01, 1.75256565e-01,
          1.69666916e-01, 1.90226153e-01, 2.11198956e-01, 1.41976118e-01,
          6.26863912e-02, 1.36461467e-01, 1.62372187e-01, 2.23596036e-01,
          1.20958835e-01, 9.93182287e-02, 1.54555798e-01, 1.87002689e-01,
          6.99544474e-02, 6.94589242e-02, 8.92809778e-02, 1.26861587e-01,
          2.01406941e-01, 2.00919062e-01, 2.50685900e-01, 1.99761048e-01,
          1.03329644e-01, 2.42816638e-02, 3.16183679e-02, 1.89591013e-02,
          3.01743951e-02, 2.74884492e-01, 2.74884492e-01, 2.74884492e-01,
          1.64479673e-01, 8.44437107e-02, 1.02533437e-01, 5.79124205e-02,
          1.03677534e-01, 1.29048690e-01, 2.33608723e-01, 1.57383323e-01,
          1.47609010e-01, 1.38857514e-01, 1.30584538e-01, 8.45344290e-02,
          4.45251763e-02, 9.36198235e-02, 1.11031771e-01, 2.46492267e-01,
          2.74884492e-01, 2.74884492e-01, 2.33537287e-01, 1.73225671e-01,
          1.94966812e-02, 4.15469008e-03, 3.33126076e-03, 5.60236489e-03,
          1.66656673e-01, 2.88880080e-01, 2.88880080e-01, 1.09671332e-01,
          5.81865236e-02, 4.49018180e-02, 1.01946527e-02, 1.25956228e-02,
          1.07036196e-02, 7.97008947e-02, 2.32305303e-01, 1.88990965e-01,
          1.04353845e-01, 7.97688290e-02, 5.09498864e-02, 2.95361727e-02,
          4.79221046e-02, 3.53044868e-02, 1.72255129e-01, 2.88880080e-01,
          2.88880080e-01, 2.88880080e-01, 2.11815715e-01, 8.00838321e-02,
          2.10278220e-02, 1.61375031e-02, 3.64872487e-03, 1.31948873e-01,
          2.53183007e-01, 2.88880080e-01, 2.88880080e-01, 2.88880080e-01,
          9.58078131e-02, 5.22684045e-02, 6.20837025e-02, 3.03406715e-02,
          6.39609322e-02, 1.17465779e-01, 1.19458325e-01, 1.07671596e-01,
          1.30296007e-01, 6.69151917e-02, 7.45598301e-02, 5.48430681e-02,
          4.02691625e-02, 8.51347521e-02, 6.66846409e-02, 7.78637677e-02,
          6.88374117e-02, 9.00979266e-02, 2.30966359e-01, 8.28846917e-02,
          4.40448597e-02, 9.62676294e-03, 1.94507197e-01, 1.49471879e-01,
          3.70764613e-01, 3.70764613e-01, 3.70764613e-01, 2.67159939e-01,
          2.07074374e-01, 6.20233379e-02, 2.98011694e-02, 1.28617808e-01,
          3.22962478e-02, 8.48845616e-02, 2.39856854e-01, 3.70764613e-01,
          1.16598964e-01, 1.05036519e-01, 4.79894876e-02, 4.33993675e-02,
          5.77493161e-02, 8.46192017e-02, 9.17749256e-02, 1.38239026e-01,
          1.22924753e-01, 1.63225040e-01, 2.11947158e-01, 2.46536657e-01,
          1.09968774e-01, 9.88431573e-02, 8.89380202e-02, 1.28742740e-01,
          2.38639444e-01, 2.56678045e-01, 3.07556659e-01, 2.74141788e-01,
          6.39165267e-02, 1.82310827e-02, 8.13255981e-02, 3.68838944e-02,
          2.16853712e-02, 8.88700485e-02, 3.07556659e-01, 3.07556659e-01,
          3.07556659e-01, 3.07556659e-01, 1.11718193e-01, 1.08098790e-01,
          1.88674014e-02, 2.17119139e-02, 3.32119539e-02, 1.35952935e-01,
          5.81339039e-02, 8.03504735e-02, 1.55373842e-01, 8.44193175e-02,
          4.80613075e-02, 2.28637513e-02, 2.69191284e-02, 4.99637462e-02,
